{"model_data": {"model": "SimpleRNN", "input_size": 2, "skip": 1, "output_size": 1, "unit_type": "LSTM", "num_layers": 1, "hidden_size": 32, "bias_fl": true}, "state_dict": {"rec.weight_ih_l0": [[0.09697527438402176, 0.14595888555049896], [1.2478193044662476, 0.2431427389383316], [0.014697288163006306, -0.124927818775177], [0.22759506106376648, -0.18866463005542755], [-0.052441131323575974, -0.3021399974822998], [-0.011801285669207573, -0.18543992936611176], [0.02174069546163082, -0.2208138257265091], [-0.00900013092905283, 0.022163253277540207], [-0.03989052027463913, -0.06302376836538315], [-0.09867610037326813, -0.017740966752171516], [0.00794992409646511, 0.014622808434069157], [-0.003107218537479639, 0.821861207485199], [0.031404733657836914, -0.006490619387477636], [0.01433359831571579, -0.2707130014896393], [0.21748432517051697, 0.15754663944244385], [-0.0020765922963619232, -0.035612206906080246], [0.0879080519080162, -0.07668790966272354], [-0.42312195897102356, -0.7054868936538696], [-0.07253386825323105, -0.20610825717449188], [0.07101955264806747, -0.09030893445014954], [-0.03969411179423332, -0.09985087811946869], [0.33662986755371094, -0.04501951113343239], [-0.37266167998313904, -0.09756931662559509], [0.08228658884763718, -0.12961222231388092], [0.033292196691036224, -0.05243925377726555], [-0.1653854250907898, -0.23261699080467224], [-0.049812447279691696, 1.486203908920288], [0.02699122205376625, -0.1805877387523651], [0.03901039808988571, 0.08521605283021927], [0.023990968242287636, -1.0214053392410278], [-0.0029497004579752684, 0.022732863202691078], [0.015547587536275387, -0.15700413286685944], [0.19201037287712097, 0.0891069695353508], [-0.7021770477294922, 0.2823164761066437], [-0.04476900398731232, 0.15966711938381195], [-0.05134517699480057, 0.39935460686683655], [-0.03762880712747574, -0.20777803659439087], [-0.00880097970366478, 0.30380022525787354], [-0.04453354328870773, 0.2447189837694168], [-0.008030428551137447, 0.04402994364500046], [-0.021429898217320442, 0.02560501918196678], [-0.1465393304824829, 0.07824315130710602], [0.015478388406336308, 0.1333262324333191], [-0.027883050963282585, 0.34054848551750183], [-0.10905072093009949, 0.13974235951900482], [-0.07532322406768799, 0.1926540583372116], [0.15176713466644287, 0.38045409321784973], [-0.006160944700241089, 0.06343448162078857], [-0.02540936879813671, 0.1365886628627777], [0.20784032344818115, 0.9955011606216431], [-0.23393268883228302, 0.36044183373451233], [0.06728706508874893, 0.005014762748032808], [-0.04113767296075821, 0.11344296485185623], [0.5954840183258057, 0.0552433542907238], [0.012975294142961502, 0.0019053468713536859], [-0.07613898068666458, 0.15427140891551971], [-0.06888505816459656, 0.2350172996520996], [-0.19991426169872284, 0.2419278472661972], [0.025800809264183044, 0.1278417855501175], [0.07224958389997482, 0.26545974612236023], [-0.03439225256443024, 0.4853768050670624], [-0.007567189633846283, -0.46345680952072144], [-0.004493622109293938, 0.0594247430562973], [0.015841754153370857, 0.20634229481220245], [-1.1310499906539917, 0.4716080129146576], [-2.841557025909424, -0.5720613598823547], [0.3049650490283966, 0.005331884603947401], [-0.36849138140678406, -0.14996685087680817], [0.07465215027332306, 0.04710149019956589], [-0.2245233654975891, 0.009849144145846367], [-0.11524758487939835, -0.03485032916069031], [0.025933900848031044, 0.02270621247589588], [-0.9975678324699402, -0.43461328744888306], [-0.21541348099708557, 0.23430803418159485], [0.130806565284729, -0.002551947021856904], [0.07248087227344513, -0.18884992599487305], [-0.027568714693188667, 0.058354876935482025], [-0.15484558045864105, 0.0643090158700943], [-0.0042596664279699326, -0.11560855805873871], [-0.15173320472240448, 0.008584913797676563], [-0.5507479906082153, 0.3581942319869995], [-1.0549343824386597, 0.1525709331035614], [-0.016136981546878815, 0.01875002682209015], [0.1512438952922821, 0.010662234388291836], [-0.1506015956401825, 0.03111036866903305], [0.326987624168396, 0.16004987061023712], [1.1586633920669556, 0.19553755223751068], [0.07600413262844086, -0.15790843963623047], [0.012742686085402966, 0.03740302100777626], [0.19125188887119293, 0.1033489853143692], [-0.4136063754558563, 0.07181216776371002], [0.824370801448822, -0.05351041257381439], [0.04894595965743065, -0.059568192809820175], [0.026584506034851074, 1.023870587348938], [-0.019042549654841423, 0.006044574547559023], [0.12459292262792587, -0.08492753654718399], [0.02915288135409355, 0.3388364911079407], [-0.30805614590644836, 0.16099202632904053], [-0.037986207753419876, 0.13341231644153595], [-0.07993753999471664, 0.2317613810300827], [-0.05729271098971367, -0.30611345171928406], [0.018112709745764732, -0.0757056325674057], [-0.035736870020627975, 0.163733571767807], [-0.007649141829460859, 0.022460581734776497], [-0.06134708225727081, 0.16397985816001892], [-0.0025414987467229366, 0.04803845286369324], [-0.006458643823862076, 0.03274083882570267], [-0.054740387946367264, -0.07156089693307877], [-0.04825446754693985, 0.0941069945693016], [0.036920055747032166, 0.17454947531223297], [0.13311231136322021, 0.3237708806991577], [-0.005501480307430029, -0.03697248548269272], [-0.029283374547958374, 0.2175317108631134], [0.05232503265142441, 0.4653163552284241], [-0.20844197273254395, -0.3259659707546234], [0.06257032603025436, -0.07939130067825317], [0.0025123574305325747, 0.18412628769874573], [0.3571247160434723, 0.7472430467605591], [0.034479472786188126, 0.0027678036130964756], [-0.02488809823989868, 0.1730859875679016], [0.022423407062888145, 0.05534515902400017], [-0.39128240942955017, 0.039455313235521317], [-0.14504437148571014, -0.36004576086997986], [0.11645552515983582, 0.1857343316078186], [0.39081987738609314, -0.21684035658836365], [0.05321577936410904, -1.0243910551071167], [-0.002343568252399564, 0.023033229634165764], [-0.009617600589990616, 0.20579653978347778]], "rec.weight_hh_l0": [[0.07476269453763962, 0.23458179831504822, -0.028246352449059486, -0.0859370082616806, -0.028991537168622017, 0.021711353212594986, 0.0023227897472679615, 0.0035079040098935366, -0.03529845550656319, 0.06264007836580276, -0.04970910772681236, 0.03968489170074463, 0.004819007124751806, -0.02571702189743519, 0.05483035743236542, -0.0017307964153587818, 0.00403871713206172, 0.010578094981610775, 0.04502040892839432, -0.029553530737757683, 0.04189299792051315, 0.2871747314929962, 0.00395760964602232, -0.04530202969908714, 0.0002862602996174246, -0.18824061751365662, -0.028403131291270256, -0.044736962765455246, -0.1596415489912033, 0.08701889216899872, 0.0027758281212300062, -0.06732099503278732], [-0.5847089886665344, -0.5294415950775146, -0.09550247341394424, 0.12236715853214264, 0.16747818887233734, -0.44662606716156006, -0.00042833786574192345, 0.036684300750494, 0.7195894718170166, -0.0643242746591568, 0.42854902148246765, 0.06858202069997787, -0.25193876028060913, 0.0918368548154831, 0.43803301453590393, 0.08361778408288956, -0.17799082398414612, 0.1770252138376236, 0.1563320755958557, -0.04156264290213585, 0.10215260833501816, -0.4070088565349579, -0.7108611464500427, 0.2396189272403717, 0.12011802941560745, 0.7146760821342468, 0.1293245404958725, -0.011050822213292122, 0.46875301003456116, 0.6157411932945251, -0.010069478303194046, 0.20628900825977325], [0.025493290275335312, 0.09869647026062012, 0.05765531584620476, 0.09943264722824097, -0.02930639125406742, -0.1340629756450653, -0.06576552242040634, -0.02294924668967724, -0.0029646125622093678, -0.07374480366706848, -0.08062270283699036, -0.027122633531689644, 0.013560461811721325, 0.07169746607542038, 0.05532638728618622, -0.05481719225645065, -0.08849751204252243, -0.09248005598783493, 0.15066421031951904, 0.017486313357949257, 0.0060707200318574905, 0.021318333223462105, -0.11160802096128464, 0.0207431111484766, 0.07343833893537521, 0.05507697910070419, 0.03499714285135269, -0.03197246044874191, -0.020659228786826134, 0.0854976698756218, 0.007750676944851875, 0.006774897687137127], [-0.10816632211208344, 0.005735223647207022, -0.22874979674816132, 0.1815968155860901, 0.03289089351892471, -0.08219658583402634, 0.037752021104097366, 0.017367390915751457, -0.03789112716913223, -0.026746809482574463, -0.037878479808568954, -0.03889774531126022, 0.10851748287677765, -0.09685231000185013, 0.1707068532705307, 0.08537598699331284, -0.0647076666355133, -0.14526434242725372, 0.2046932876110077, -0.07057557255029678, 0.2006680965423584, -0.0930672138929367, -0.3278472423553467, 0.058156613260507584, -0.10656818002462387, 0.02670087106525898, 0.02375556342303753, 0.09689196944236755, 0.8574245572090149, 0.1275583803653717, -0.03365226089954376, -0.2281847894191742], [0.027178898453712463, -0.0033204613719135523, 0.0027376164216548204, -0.032298602163791656, -0.007720315363258123, -0.015021117404103279, 0.01666879467666149, -0.005132115446031094, 0.03798319399356842, -0.030029194429516792, 0.014774318784475327, 0.04827483743429184, -0.005031888373196125, -0.04660094156861305, 0.02862565778195858, 0.001004599966108799, -0.019213691353797913, 0.038451187312603, -0.039766013622283936, -0.012390557676553726, -0.014982540160417557, 0.045902278274297714, 0.034735552966594696, -0.03467774763703346, -0.01504555158317089, -0.03847019001841545, -0.013110374100506306, 0.013100448064506054, 0.011198948137462139, -0.06205844134092331, 0.003122868714854121, -0.049554597586393356], [-0.1302848905324936, 0.05954235792160034, -0.03199721500277519, -0.1334187388420105, -0.02206832729279995, 0.11968383193016052, -0.006785071920603514, -0.002779854228720069, 0.048472605645656586, 0.05780094116926193, 0.09946151077747345, -0.07645279169082642, 0.03277495875954628, -0.031497497111558914, 0.058464765548706055, 0.0177913811057806, -0.07161489874124527, -0.07163909822702408, -0.12175661325454712, -0.01042379904538393, 0.02183426171541214, 0.07854265719652176, -0.08165004104375839, 0.008485797792673111, -0.0845286101102829, -0.0924358144402504, 0.07983145862817764, 0.03507418930530548, 0.28221583366394043, 0.11068699508905411, 0.018312392756342888, -0.08899670839309692], [0.03456151485443115, 0.0701383575797081, 0.0031204749830067158, 0.032630402594804764, 0.07011044025421143, -0.10457255691289902, -0.03847573697566986, 0.002128950320184231, -0.03199777379631996, -0.07343006134033203, -0.01887950859963894, 0.04029209539294243, 0.025683894753456116, -0.03808176517486572, -0.04128510504961014, -0.015928342938423157, -0.08473286777734756, 0.012956184335052967, 0.15130189061164856, 0.00507631991058588, -0.021041307598352432, -0.014295320026576519, -0.16841208934783936, -0.05034039169549942, -0.0028607051353901625, 0.06358116865158081, 0.012775816954672337, -0.2519046664237976, 0.1202908456325531, 0.11517567187547684, -0.006123953498899937, 0.008140540681779385], [-0.024821266531944275, 0.02012063004076481, 0.003827334614470601, 0.020872745662927628, -0.004444217309355736, -0.00165296730119735, 0.0031226391438394785, 0.002347164088860154, 0.0020678068976849318, 0.004852610174566507, -0.0033381073735654354, -0.010736563242971897, -0.0021055974066257477, -0.004076657351106405, 0.007904507219791412, 0.0014550220221281052, 0.020797334611415863, 0.006695383694022894, -0.007685712538659573, -0.0021893740631639957, -0.0030556758865714073, -0.016154695302248, 0.014967708848416805, -0.006748076993972063, -0.004901782609522343, 0.004181947559118271, -0.007426191587001085, -0.008083411492407322, -0.034732505679130554, -0.0060228402726352215, -0.0025018835440278053, -0.0005287369131110609], [0.19993014633655548, -0.020961392670869827, 0.0494135245680809, 0.041714146733284, -0.014914332889020443, 0.05964101850986481, -0.007788959890604019, 0.0022924914956092834, -0.03385460749268532, 0.07903982698917389, -0.005981429945677519, -0.00846779253333807, 0.06056862324476242, 0.035343438386917114, -0.12172511965036392, 0.003915760200470686, -0.008237600326538086, 0.03809161111712456, 0.0501820370554924, -0.008724146522581577, -0.01323465071618557, 0.10423168540000916, 0.20834621787071228, -0.07431679219007492, 0.039521340280771255, -0.2621248960494995, 0.027809662744402885, -0.009194586426019669, -0.1330624520778656, -0.07513406127691269, -0.0051673660054802895, -0.04327888414263725], [0.13712923228740692, 0.09345438331365585, 0.023325501009821892, -0.09670121967792511, -0.0006668072892352939, -0.11637628078460693, 0.05869073420763016, -0.022761981934309006, -0.12830884754657745, 0.09397661685943604, -0.05498569458723068, 0.07911501824855804, -0.0552176833152771, -0.03934682905673981, 0.02602875791490078, -0.06366483122110367, -0.07967687398195267, -0.0334373414516449, 0.026048066094517708, 0.023883160203695297, 0.12682120501995087, -0.05432228744029999, -0.008560219779610634, 0.12782633304595947, 0.05072879418730736, -0.07026112824678421, 0.010982885956764221, 0.05640225484967232, -0.32974758744239807, 0.2112872451543808, 0.017192276194691658, 0.10016874223947525], [0.025905149057507515, 0.029758203774690628, 0.01845766417682171, 0.0346866101026535, 0.013004065491259098, -0.08418946713209152, -0.005209713242948055, -0.0062107667326927185, -0.03541436418890953, 0.010856145061552525, -0.00738673796877265, -0.011250832118093967, 0.025466037914156914, -0.06483756750822067, 0.023097051307559013, 0.013645278289914131, 0.06513264775276184, 0.048762720078229904, -0.015834100544452667, -0.012325349263846874, 0.007767386734485626, -0.08246701210737228, 0.06724052131175995, -0.017043674364686012, -0.06517772376537323, 0.04052739962935448, 0.07635603845119476, -0.026344867423176765, -0.03323397785425186, 0.09467335790395737, 0.012080457992851734, -0.010464693419635296], [0.08188710361719131, 0.047045473009347916, -0.0006978785386309028, 0.23057140409946442, -0.029118793085217476, 0.029344024136662483, -0.030791357159614563, 0.0036163036711513996, -0.03963705524802208, 0.04471815377473831, -0.024255789816379547, 0.0174653772264719, 0.015942441299557686, 0.00618548272177577, -0.014647460542619228, 0.005168756935745478, 0.041679367423057556, -0.023931529372930527, 0.017306463792920113, -0.018988758325576782, 0.020999634638428688, 0.17308343946933746, 0.11725514382123947, -0.0022060242481529713, -0.01855471543967724, 0.055784352123737335, 0.005946376360952854, 0.03261890634894371, -0.22322219610214233, 0.24665847420692444, 0.00504675880074501, 0.024022458121180534], [0.035606157034635544, 0.1780398190021515, -0.05039114132523537, -0.043399129062891006, -0.057191889733076096, 0.05985099822282791, 0.011385662481188774, -0.01452219020575285, -0.1288471668958664, -0.050653133541345596, -0.08025351911783218, 0.03178486227989197, -0.0112332534044981, 0.01610274240374565, -0.08897991478443146, -0.06512568891048431, -0.01909170299768448, -0.05702795460820198, -0.1449808031320572, -0.012870336882770061, 0.0049867285415530205, 0.12227650731801987, -0.007087921258062124, 0.06842036545276642, -0.026837272569537163, 0.058651335537433624, -0.0009804602013900876, 0.003506075358018279, -0.012168473564088345, 0.1642218381166458, 0.012349535711109638, -0.0017292380798608065], [0.05975988134741783, 0.12344425916671753, 0.05149397626519203, 0.11048351228237152, 0.03832804784178734, -0.08900529891252518, 0.04091302305459976, -0.021467318758368492, -0.17527121305465698, -0.17001062631607056, -0.05575047805905342, 0.07940547168254852, -0.008040155284106731, 0.050147444009780884, 0.06070856750011444, -0.03858958184719086, -0.02937947027385235, -0.05499303340911865, 0.23348692059516907, 0.03242214024066925, 0.05740862712264061, -0.05091321840882301, -0.25718796253204346, 0.03944310545921326, 0.05947240814566612, 0.070095494389534, -0.041289012879133224, -0.12201787531375885, 0.19936616718769073, 0.1786217838525772, 0.005906944628804922, 0.033012181520462036], [0.015474899671971798, -0.3399650454521179, 0.0466156080365181, 0.01916526071727276, 0.052102990448474884, -0.14583474397659302, -0.027978915721178055, 0.011819981969892979, 0.03192000091075897, -0.023441355675458908, 0.13738402724266052, -0.06308986246585846, 0.021721992641687393, 0.059938475489616394, -0.08665808290243149, 0.01431919913738966, -0.001662679947912693, -0.19010674953460693, 0.34445393085479736, 0.017324313521385193, -0.011666148900985718, 0.12590330839157104, 0.06928610056638718, -0.05214707553386688, 0.008045222610235214, -0.15791518986225128, 0.2211097776889801, 0.037343382835388184, -0.17940610647201538, -0.010854342952370644, -0.002565249102190137, 0.007465234491974115], [0.05627351254224777, -0.1151910200715065, 0.001533794915303588, 0.06425004452466965, -0.007340884301811457, -0.0074114128947257996, -0.01308705098927021, 0.006282215937972069, 0.023864608258008957, 0.005990937817841768, -0.0005172311794012785, 0.03416852280497551, -0.00702701648697257, 0.008007731288671494, 0.02464962750673294, 0.02379186637699604, -0.01950210891664028, 0.034244291484355927, -0.022455841302871704, -0.00323523604311049, -0.020958149805665016, -0.011151226237416267, 0.09898724406957626, 0.031552962958812714, 0.012550978921353817, 0.008528151549398899, 0.014331567101180553, 0.00038421363569796085, -0.10319152474403381, -0.044439647346735, -0.005737496539950371, 0.002199196722358465], [-0.06165369972586632, 0.00043848849600180984, -0.0015236500184983015, 0.09643154591321945, -0.03666326403617859, 0.04923340305685997, -0.045827023684978485, -0.0032984272111207247, 0.07247404754161835, 0.1437111645936966, 0.022896043956279755, 0.05212540924549103, -0.06887795031070709, -0.0057946909219026566, 0.02577229030430317, -0.035342998802661896, -0.06783431768417358, 0.011004834435880184, 0.036817021667957306, 0.02281150221824646, -0.07048066705465317, 0.08464236557483673, -0.08350653201341629, 0.05230696126818657, 0.04718904569745064, -0.020714258775115013, -0.007363964803516865, -0.06760215759277344, 0.1664530485868454, 0.08665170520544052, 0.002342037856578827, -0.0034728986211121082], [0.10452108830213547, 1.449423909187317, -0.26063987612724304, 0.019342249259352684, -0.06716325134038925, 0.3055919408798218, 0.021250542253255844, 0.032870762050151825, -1.0035306215286255, -0.28768521547317505, -0.09534763544797897, -0.10162561386823654, 0.07973667979240417, 0.005204377230256796, -0.2749166190624237, 0.04555350914597511, -0.08721132576465607, -0.2574889361858368, 0.44986987113952637, -0.19351089000701904, 0.19604477286338806, 1.484699010848999, -0.016537519171833992, -0.09461177885532379, -0.07803099602460861, -1.023207664489746, -0.6498457789421082, -0.16206815838813782, 1.4857728481292725, -0.08935341984033585, -0.0343441367149353, -0.04651980102062225], [-0.6104785203933716, 0.786287784576416, -0.010242804884910583, -0.15673375129699707, 0.05458429083228111, -0.2809012532234192, -0.07583919912576675, -0.05010896176099777, 0.3805835545063019, -0.013039362616837025, -0.10699974745512009, 0.21403680741786957, 0.015565089881420135, 0.0438666008412838, -0.2345396727323532, -0.03834007680416107, -0.0007650548359379172, -0.012483279220759869, 0.46073848009109497, -0.011937074363231659, 0.23188897967338562, 1.64262855052948, -0.1860276609659195, -0.012922819703817368, 0.08902649581432343, 0.2287265807390213, -0.0933544710278511, -0.21221455931663513, 1.2782623767852783, 0.005761848762631416, 0.061791468411684036, -0.12495733052492142], [-0.02896294929087162, 0.04762716963887215, -0.016341036185622215, -0.04079681262373924, -0.011462374590337276, 0.0030414010398089886, -0.012607361190021038, 0.005361062008887529, -0.032711196690797806, -0.03266565501689911, -0.02176658809185028, 0.028149066492915154, 0.0029973306227475405, -0.002466927282512188, -0.0045103151351213455, -0.011895427480340004, -0.09874047338962555, 0.006071228533983231, -0.04249080270528793, 0.003381888847798109, -0.008769280277192593, -0.0034005013294517994, 0.006243142299354076, -0.0035541027318686247, -0.004615484736859798, 0.019522923976182938, -0.02555590309202671, 0.008855728432536125, 0.03477032855153084, 0.0244609322398901, 0.0003897220885846764, -0.016112709417939186], [-0.00901255663484335, 0.03956535458564758, 0.007891416549682617, 0.0762568935751915, 0.011105555109679699, -0.11613393574953079, 0.07268361747264862, -0.018998658284544945, -0.00048390866140834987, 0.01926022209227085, -0.02049531787633896, 0.019434040412306786, 0.0017728668171912432, -0.03342614695429802, 0.059709206223487854, -0.0228573027998209, -0.01594252698123455, 0.04090262949466705, 0.061074648052453995, 0.0015253707533702254, 0.024102311581373215, -0.013051697984337807, -0.05277759209275246, 0.008450799621641636, 0.022659892216324806, 0.025884246453642845, -0.01940164342522621, 0.0017282766057178378, 0.053647395223379135, 0.004808255936950445, 0.010382384061813354, 0.09251484274864197], [0.26357483863830566, -0.39685747027397156, -0.12764529883861542, 0.05399436876177788, 0.01631425879895687, 0.057167284190654755, 0.10713832080364227, -0.004754521884024143, -0.338775098323822, 0.12379450350999832, -0.08880254626274109, -0.10262110084295273, 0.06788918375968933, -0.14512696862220764, 0.1278200000524521, -0.026687543839216232, 0.15798740088939667, 0.05711483955383301, -0.010200965218245983, -0.029144583269953728, 0.12262481451034546, -0.007019232027232647, 0.0452917218208313, 0.005139212589710951, -0.0993746966123581, 0.03627831116318703, -0.044313520193099976, -0.07285594195127487, 0.19020314514636993, 0.005758911371231079, 0.004552257712930441, -0.06886257976293564], [0.12578991055488586, 0.13099969923496246, 0.05371886119246483, -0.004496517591178417, -0.05223720148205757, 0.04455506056547165, 0.02527576871216297, -0.010191863402724266, -0.0720081478357315, -0.10132276266813278, -0.07498841732740402, -0.06926220655441284, -0.010153141804039478, 0.06529340893030167, 0.08597833663225174, -0.021436210721731186, 0.10418133437633514, 0.15795987844467163, -0.09635987132787704, -0.004200559109449387, -0.08739040046930313, 0.195089653134346, 0.27366968989372253, 0.03542746230959892, 0.02586701326072216, -0.06506697833538055, -0.08587812632322311, -0.018822891637682915, -0.031566865742206573, -0.04099157825112343, 0.004475898575037718, 0.06002845987677574], [-0.024226441979408264, 0.07377521693706512, 0.0785725936293602, -0.14659787714481354, -0.011352471075952053, 0.010944104753434658, 0.006535564083606005, -0.006639844737946987, 0.0602119006216526, -0.023632656782865524, 0.045208364725112915, -0.0843132957816124, -0.01027221791446209, -0.0010818731971085072, 0.04245387390255928, -0.032945867627859116, -0.13171988725662231, -0.04658528417348862, 0.073651984333992, 0.03485078364610672, 0.04466288909316063, 0.019323406741023064, -0.15541037917137146, 0.06738701462745667, 0.03334154188632965, 0.14023317396640778, -0.018556157127022743, -0.2244339883327484, 0.2629834711551666, 0.10670778155326843, 0.00563919497653842, 0.014703175984323025], [-0.024830898270010948, -0.07936751842498779, -0.058114923536777496, -0.08088669925928116, 0.002190345199778676, -0.06546494364738464, -0.03305665776133537, -0.014841328375041485, 0.08165914565324783, -0.12377887964248657, 0.07572212815284729, 0.06604509055614471, -0.056138310581445694, 0.04178064689040184, -0.0559832826256752, 0.024266544729471207, -0.034161780029535294, -0.05416854843497276, -0.04716601222753525, 0.03001750074326992, 0.01310968678444624, -0.09215454012155533, -0.07569359987974167, 0.10359077900648117, -0.03405961021780968, 0.045509688556194305, 0.026845227926969528, -0.0766693726181984, -0.018613653257489204, 0.060219503939151764, 0.018558381125330925, 0.01506376639008522], [-0.1373138427734375, -0.3434622287750244, 0.03565262630581856, -0.03600337356328964, 0.020757382735610008, -0.10272950679063797, 0.04686322063207626, 0.03012171946465969, 0.283511757850647, 0.01345361489802599, 0.09389223903417587, -0.012192063964903355, -0.0075142295099794865, 0.015314442105591297, -0.17101910710334778, 0.06361781060695648, -0.0493156835436821, -0.2955845892429352, 0.29654085636138916, -0.0037725719157606363, 0.025054916739463806, 0.06039859354496002, -0.1652541309595108, 0.005582231562584639, 0.06557115167379379, -0.19345511496067047, 0.06595119833946228, -0.06185198202729225, -0.1455574631690979, -0.06059356406331062, -0.027348393574357033, -0.032688215374946594], [0.1749090850353241, -0.000264222762780264, -0.016764871776103973, 0.13532626628875732, 0.028647268190979958, -0.026978380978107452, 0.0028895537834614515, -0.009746833704411983, 0.10324347019195557, -0.03804275393486023, 0.09653133898973465, 0.05525340512394905, 0.017562871798872948, 0.0013665927108377218, -0.01617290824651718, -0.03438723087310791, 0.06967075914144516, -0.08296537399291992, 0.09061102569103241, 0.018330413848161697, 0.0016317153349518776, 0.21618454158306122, -0.03559825196862221, 0.026254380121827126, 0.009895214810967445, 0.3724575936794281, -0.03826422244310379, -0.04119822010397911, -0.09620442241430283, 1.0196870565414429, 0.01818837597966194, 0.053417205810546875], [-0.1224040538072586, -0.15728908777236938, 0.17627941071987152, -0.08155742287635803, -0.05209290236234665, 0.3309286832809448, 0.036110322922468185, 0.0076539115980267525, 0.06160549446940422, -0.09554662555456161, 0.10822103172540665, 0.0030041143763810396, -0.0077990880236029625, -0.020658815279603004, 0.05603953078389168, 0.01634863018989563, -0.34253254532814026, 0.04436464607715607, 0.14611902832984924, 0.014671001583337784, -0.008253191597759724, -0.04369673877954483, -0.16162604093551636, 0.06944882124662399, 0.08580891788005829, 0.04098725691437721, 0.19271378219127655, -0.019974274560809135, 0.946631669998169, 0.1044054701924324, -0.0037504059728235006, -0.048844609409570694], [-0.06190768629312515, -0.04904569312930107, -0.04468400776386261, -0.04608211666345596, 0.008273191750049591, -0.11719802021980286, -0.005275442730635405, 0.0038532507605850697, 0.03411659225821495, 0.002590804360806942, -0.007660807576030493, -0.07565973699092865, 0.05268941819667816, 0.0002561334113124758, -0.012414854019880295, 0.03405704349279404, -0.06211410462856293, -0.018616920337080956, 0.08655207604169846, -0.006111344788223505, 0.02032688818871975, 0.11439567804336548, 0.012094330042600632, 0.018880970776081085, 0.00782338622957468, -0.0879533514380455, 0.017137592658400536, -0.09171703457832336, -0.06254573911428452, -0.06669195741415024, -0.007146352902054787, -0.03975436091423035], [-0.1930924355983734, -0.24480630457401276, 0.007368003949522972, -0.041685257107019424, 0.015029754489660263, 0.0704527422785759, -0.022501371800899506, -0.012229977175593376, 0.16742205619812012, -0.0057763596996665, 0.08246459811925888, 0.019882701337337494, 0.021995877847075462, -0.0006846046890132129, 0.04035917669534683, -0.010826533660292625, -0.09803377091884613, 0.10540591925382614, -0.06152292340993881, 0.010329527780413628, -0.024135619401931763, -0.23149213194847107, 0.15604181587696075, 0.007655700668692589, -0.04893888533115387, 0.019747409969568253, 0.48801955580711365, 0.1237868070602417, 0.10698498040437698, -0.195339635014534, 0.012710990384221077, 0.04760270193219185], [-0.013340175151824951, 0.011528126895427704, 0.006274712737649679, 0.024198614060878754, -0.007121225353330374, 0.013702275231480598, 0.004748221021145582, 0.0021748561412096024, -0.001031890045851469, 0.005408957600593567, -0.0012103035114705563, -0.007286653853952885, -0.01181071437895298, -0.001219192985445261, -0.0005881717661395669, -0.009138861671090126, 0.009906592778861523, 0.00352695444598794, -0.003788461210206151, -0.004216696601361036, -0.003246893873438239, -0.005149614531546831, 0.026356615126132965, -0.0032077424693852663, -0.003499038750305772, -0.0054864585399627686, -0.005187341012060642, 0.002379624405875802, -0.03295528516173363, -0.009605281054973602, -0.0020860263612121344, 0.0028114139568060637], [0.04698847234249115, 0.08670457452535629, 0.004299257881939411, 0.06971339881420135, 0.06116152182221413, -0.06914135068655014, 0.08486751466989517, -0.012542844749987125, -0.07250910997390747, -0.0656636506319046, -0.07577361166477203, 0.03320573642849922, 0.031786251813173294, -0.025020167231559753, 0.1031440943479538, -0.057296235114336014, 0.004818497691303492, 0.035157956182956696, 0.20793430507183075, 0.012644235976040363, 0.09254226088523865, -0.050236158072948456, -0.19251878559589386, -0.02827531099319458, 0.04759916663169861, 0.09915658831596375, 0.04393896460533142, -0.18962526321411133, 0.006972096860408783, 0.09803328663110733, -0.0073201158083975315, -0.08394031971693039], [0.07342473417520523, 0.29468950629234314, 0.020644187927246094, -0.24421082437038422, -0.0359235517680645, -0.03562074527144432, 0.05067307874560356, 0.011905276216566563, -0.2420346587896347, 0.04879922419786453, -0.07335107773542404, 0.11157212406396866, 0.012713122181594372, -0.040113840252161026, 0.10647948831319809, -0.010428431443870068, 0.10581564903259277, 0.23386888206005096, -0.07720829546451569, -0.012565246783196926, 0.029404329136013985, 0.4315832257270813, 0.3470454514026642, -0.06496778130531311, 0.013455153442919254, -0.11045430600643158, -0.08058679848909378, -0.14188028872013092, -0.17574091255664825, 0.1303507536649704, -0.0036534504033625126, -0.014960476197302341], [-0.32707905769348145, -0.5561940670013428, -0.1328590363264084, 0.15579000115394592, 0.07638703286647797, -0.04049096256494522, 0.12278477847576141, 0.0500362403690815, 0.7232121229171753, 0.032013654708862305, 0.42400062084198, 0.10641118884086609, -0.04747956246137619, -0.013785538263618946, 0.1272192746400833, 0.07076127082109451, 0.0951528325676918, 0.14748677611351013, -0.050525736063718796, -0.11608677357435226, -0.06473170965909958, 0.15157556533813477, 0.006510245148092508, 0.11468232423067093, -0.023513399064540863, 0.24945223331451416, 0.41531774401664734, 0.297586053609848, 0.19951589405536652, 0.307588130235672, 0.0066656856797635555, 0.18919618427753448], [-0.03180037811398506, 0.04222404584288597, 0.029701925814151764, 0.16932567954063416, -0.08550423383712769, -0.12481776624917984, 0.03600170835852623, -0.0022702475544065237, 0.056516408920288086, -0.035916101187467575, -0.04190448299050331, 0.046613845974206924, -0.03831547498703003, -0.02627680078148842, 0.0031809681095182896, 0.01580151729285717, -0.0556604266166687, 0.004631027113646269, -0.13355794548988342, -0.035157639533281326, -0.04741688445210457, 0.11020810157060623, 0.30845746397972107, 0.07016051560640335, -0.028161291033029556, 0.07330899685621262, -0.041412875056266785, 0.07330118119716644, -0.6183052659034729, -0.21689258515834808, 0.001492088777013123, -0.18366363644599915], [0.12619493901729584, -0.17176030576229095, -0.0773245319724083, 0.129556804895401, -0.05542431026697159, -0.1373235434293747, 0.04930753633379936, 0.050134096294641495, -0.06843472272157669, 0.23657631874084473, -0.13331541419029236, -0.03564831614494324, 0.27812016010284424, -0.10426558554172516, -0.09927944093942642, 0.10731834173202515, 0.23733001947402954, 0.07636415213346481, -0.306701123714447, -0.023618392646312714, 0.08870921283960342, -0.20093359053134918, 0.36831966042518616, -0.06163043901324272, -0.08136589080095291, -0.08163551241159439, 0.04576684534549713, -0.19100767374038696, -0.4510924816131592, -0.00460636243224144, -0.04608295112848282, -0.24398256838321686], [0.026922322809696198, -0.01692328229546547, 0.005412423517554998, -0.010635565035045147, -0.008170467801392078, -0.012228588573634624, 0.013813572004437447, -0.004303280264139175, 0.023688483983278275, -0.021207217127084732, 0.009491135366261005, 0.04031023010611534, 0.002072911476716399, -0.03901500627398491, 0.02479260414838791, 0.004555260296911001, -0.01620965451002121, 0.03601422160863876, -0.03296222165226936, -0.01193981058895588, -0.015617527067661285, 0.04529434069991112, 0.050604112446308136, -0.027469120919704437, -0.010837887413799763, -0.03519613668322563, -0.006827603094279766, 0.015620979480445385, -0.01874026283621788, -0.05763209983706474, 0.0031939682085067034, -0.03887990489602089], [-0.08519180864095688, -0.13446204364299774, 0.011602849699556828, 0.19746537506580353, -0.08474341034889221, 0.29382118582725525, -0.05210951715707779, -0.022322749719023705, 0.16214439272880554, 0.1648208349943161, 0.07857474684715271, 0.05449511855840683, -0.051083244383335114, -0.05503271892666817, 0.10936719924211502, -0.02143022231757641, -0.11868078261613846, -0.005549898371100426, -0.26645132899284363, -0.03263198211789131, 0.015298093669116497, -0.016692236065864563, 0.17369210720062256, 0.019039588049054146, -0.1486000418663025, 0.015855565667152405, 0.06279376894235611, 0.29803115129470825, 0.026405934244394302, 0.15799711644649506, 0.04427986219525337, -0.08334363251924515], [-0.1017245501279831, -0.07079868763685226, -0.017808808013796806, 0.15056318044662476, -0.0761776864528656, -0.029272155836224556, -0.10681425780057907, -0.015518875792622566, 0.09427807480096817, 0.1792028397321701, -0.03777396306395531, 0.002963065402582288, 0.0228735338896513, -0.06326889246702194, -0.15346182882785797, 0.015672625973820686, -0.06902914494276047, 0.07128340750932693, -0.03255582973361015, -0.03100491873919964, 0.04153570160269737, 0.0203245896846056, 0.3493632376194, 0.07356946915388107, 0.0036012092605233192, 0.06250027567148209, -1.0499997188162524e-05, -0.15482565760612488, -0.455516517162323, -0.18969765305519104, 0.015838319435715675, -0.22692231833934784], [-0.028756000101566315, 0.018835168331861496, 0.005087574012577534, 0.03579419478774071, -0.0060014803893864155, 0.0025085273664444685, 0.0021330786403268576, 0.0024594382848590612, 0.001891895430162549, 0.009592165239155293, -0.004357737954705954, -0.013153347186744213, -0.004105462692677975, -0.00444907508790493, 0.006983173079788685, 0.0011434693587943912, 0.023171963170170784, 0.007231506053358316, -0.007670735474675894, -0.002203533425927162, -0.00436239130795002, -0.019741995260119438, 0.028189385309815407, -0.008237002417445183, -0.0027500446885824203, 0.0005431102472357452, -0.009414435364305973, -0.007026795297861099, -0.055738240480422974, -0.007723930291831493, -0.002744362223893404, -0.0007925488171167672], [0.2205512970685959, 0.20005936920642853, 0.09350617229938507, 0.10162625461816788, -0.03998138755559921, 0.041120752692222595, 0.023799192160367966, 0.016017423942685127, -0.3215404748916626, -0.05276230722665787, -0.14200040698051453, 0.02428855188190937, 0.15130078792572021, 0.04304864630103111, -0.12668076157569885, 0.027600105851888657, -0.012682046741247177, 0.1734558641910553, -0.07485362142324448, -0.007653475273400545, -0.0302985031157732, 0.016871396452188492, 0.35416555404663086, -0.16841135919094086, 0.034573543816804886, -0.012115544639527798, -0.07166621088981628, -0.05047240108251572, -0.03682475909590721, -0.03633049130439758, -0.014547440223395824, -0.03931987285614014], [0.148501455783844, -0.03990720584988594, 0.0011258154409006238, 0.19068379700183868, -0.043628495186567307, 0.015978708863258362, -0.049019716680049896, -0.005262685939669609, -0.10259173065423965, 0.17692548036575317, -0.12252224236726761, 0.0815439224243164, 0.021977804601192474, -0.042475201189517975, -0.1650552600622177, 0.005930149462074041, -0.13862839341163635, 0.039549048990011215, -0.12626603245735168, -0.007654440589249134, 0.16992619633674622, -0.1065172478556633, 0.2379378378391266, -0.11581246554851532, 0.00894713681191206, -0.09035400301218033, -0.00515729421749711, 0.04617408290505409, -0.2150936722755432, -0.14253902435302734, 0.016545472666621208, -0.22862805426120758], [0.07492955774068832, 0.002506993943825364, 0.02847515605390072, 0.08942075818777084, 0.016235558316111565, -0.08787256479263306, -0.0022993816528469324, -0.007249056361615658, -0.06688812375068665, 0.032786909490823746, -0.009452189318835735, -0.013469542376697063, 0.038408540189266205, -0.08340601623058319, 0.029297927394509315, 0.017447030171751976, 0.08067880570888519, 0.06056535989046097, -0.01961265318095684, -0.01008554920554161, 0.01508419681340456, -0.07704102993011475, 0.1300916224718094, -0.02787197381258011, -0.04920251667499542, 0.019434310495853424, 0.11062931269407272, -0.024436917155981064, -0.08858510106801987, 0.09724678844213486, 0.015313469804823399, -0.023272939026355743], [-0.08827342092990875, 0.05924934148788452, -0.11098859459161758, 0.21801671385765076, -0.025913912802934647, -0.08231378346681595, 0.0015288367867469788, 0.017096539959311485, 0.13521340489387512, 0.07015716284513474, 0.007742945570498705, 0.044852226972579956, 0.09956585615873337, -0.06215070188045502, -0.05130266025662422, 0.039195749908685684, 0.06277550011873245, -0.03884919360280037, -0.05224047228693962, -0.04188286140561104, 0.03220508620142937, 0.12435638159513474, 0.29310277104377747, 0.1189194992184639, -0.1023714616894722, 0.21491354703903198, 0.000901595747563988, -0.12024887651205063, -0.4605121612548828, 0.5961392521858215, -0.010348306968808174, -0.004241177346557379], [-0.043569646775722504, -0.03148423507809639, -0.06374333053827286, 0.16190147399902344, -0.07068181037902832, 0.11029870808124542, 0.08678484708070755, -0.003962016198784113, 0.10070418566465378, 0.19357313215732574, 0.0069172438234090805, 0.0836508646607399, -0.036747634410858154, -0.09847993403673172, -0.061384882777929306, -0.013395257294178009, 0.01963011361658573, -0.010175405070185661, -0.21847094595432281, -0.01937386766076088, -0.00046598477638326585, 0.042733289301395416, 0.3284408748149872, 0.021986965090036392, -0.04125673696398735, -0.17862743139266968, -0.011519487015902996, 0.026565153151750565, -0.43060576915740967, -0.16972003877162933, -0.004391067195683718, -0.14393040537834167], [-0.08875555545091629, -0.07165779918432236, -0.0136287622153759, 0.23539282381534576, -0.10587716102600098, -0.06044609472155571, -0.038012512028217316, -0.008903301320970058, 0.10486845672130585, 0.05124169960618019, -0.09684792160987854, 0.06759637594223022, -0.021354136988520622, -0.06114798039197922, 0.05251862108707428, -0.0015818572137504816, -0.18491113185882568, 0.025336552411317825, -0.12816175818443298, -0.03224334865808487, 0.02565646357834339, 0.0579744353890419, 0.31201863288879395, 0.12587706744670868, -0.040471870452165604, -0.0029732147231698036, -0.02682427689433098, -0.013963490724563599, -0.5506554841995239, -0.27165672183036804, 0.001282503828406334, -0.09584527462720871], [0.03676969185471535, -0.31800341606140137, 0.0371546596288681, 0.014400968328118324, 0.05133340507745743, -0.09628092497587204, -0.032565485686063766, 0.00718386285007, -9.486820636084303e-05, 0.05545474961400032, 0.1275976002216339, -0.07991035282611847, 0.05869990587234497, 0.0630059763789177, -0.2843403220176697, -0.009144304320216179, -0.029802292585372925, -0.2370797097682953, 0.4884103834629059, 0.030892660841345787, 0.003936840686947107, 0.0008615115657448769, 0.11307365447282791, -0.08699700981378555, 0.0007657181704416871, -0.3686217963695526, 0.18950456380844116, 0.11520398408174515, -0.3412782847881317, -0.025462063029408455, 0.0027812831103801727, -0.03732401505112648], [0.058557841926813126, -0.16211417317390442, 0.00878250040113926, 0.1624724119901657, -0.016328733414411545, 0.015570932067930698, -0.024863682687282562, 0.01275707222521305, 0.02466108836233616, 0.042519912123680115, -0.006425803992897272, 0.04289812594652176, -0.010109765455126762, 0.010588857345283031, 0.028251515701413155, 0.02896808087825775, -0.013188177719712257, 0.04891982674598694, -0.03330746293067932, -0.0023345279041677713, -0.03217596933245659, -0.02838531881570816, 0.19724908471107483, 0.03890134394168854, 0.03099881298840046, -0.0016457545571029186, 0.013679440133273602, 0.014512639492750168, -0.22481785714626312, -0.07135818153619766, -0.012471206486225128, -0.010499902069568634], [-0.008523994125425816, -0.03276413679122925, -0.0027799971867352724, 0.16818620264530182, -0.057382091879844666, 0.05278396978974342, 0.0776984766125679, -0.015014605596661568, 0.052475787699222565, 0.11274293065071106, -0.04804610833525658, 0.010902473703026772, 0.0017010357696563005, 0.03651296719908714, -0.01738918386399746, -0.018070576712489128, -0.14905665814876556, 0.11535024642944336, -0.14820365607738495, -0.00840867217630148, -0.005983045324683189, -0.005477148108184338, 0.2472236007452011, 0.08646568655967712, 0.017189644277095795, 0.03781122714281082, 0.07965885102748871, -0.11054304242134094, -0.22694487869739532, -0.12454547733068466, 0.017199212685227394, -0.08832158893346786], [-0.5743606090545654, -0.5937658548355103, 0.13115164637565613, 0.10683350265026093, 0.05990768224000931, -0.061853259801864624, -0.151938334107399, 0.06540430337190628, 0.5349227786064148, 0.18992270529270172, 0.19670799374580383, 0.1451241374015808, -0.05180346593260765, 0.02284316159784794, 0.05769253522157669, 0.01256890781223774, -0.08353492617607117, 0.29664427042007446, -0.39106661081314087, 0.08014421910047531, -0.09284994751214981, -0.2363577038049698, 0.4982043206691742, -0.01863611862063408, 0.06983253359794617, 0.8347266316413879, 0.2901773154735565, -0.049759380519390106, -1.0694904327392578, 0.2652336359024048, -0.02256634831428528, 0.1389533281326294], [-0.16934530436992645, -0.04954305291175842, 0.07968463748693466, 0.17527715861797333, -0.04012675583362579, 0.06852471083402634, -0.09645082801580429, 0.01852891780436039, 0.2758244574069977, 0.18354067206382751, 0.08074701577425003, -0.009096832014620304, 0.13409943878650665, 0.07560049742460251, -0.22841589152812958, 0.08524502068758011, -0.09687159955501556, 0.13575784862041473, -0.2737562656402588, -0.01638117991387844, -0.03211335465312004, -0.8128464818000793, 0.30694353580474854, 0.12768925726413727, 0.019949249923229218, -0.18795990943908691, 0.2589395046234131, -0.05672556534409523, -0.48302730917930603, -0.021895047277212143, -0.0011783662484958768, 0.0049078939482569695], [-0.0030586884822696447, 0.027420153841376305, -0.005760000087320805, -0.0003984732902608812, -0.0138902198523283, 0.007503419183194637, -0.007517824415117502, 0.005758112296462059, -0.0540507435798645, -0.02289886586368084, -0.027029894292354584, 0.02747672237455845, 0.010253568179905415, -0.011904310435056686, -0.011417281813919544, -0.009616888128221035, -0.09409172087907791, 0.011484441347420216, -0.04675731807947159, 0.0048245773650705814, -0.008758554235100746, 0.04140916094183922, 0.07101821154356003, -0.01886052079498768, 0.0097177280113101, 0.01569313555955887, -0.025580674409866333, 0.007151024881750345, -0.05289673060178757, 0.022060846909880638, 0.0007611789042130113, -0.017433300614356995], [-0.05088512599468231, -0.04633772000670433, 0.0387641005218029, 0.08409789949655533, -0.052937235683202744, -0.0713493824005127, -0.022900022566318512, -0.007655607536435127, 0.06546729058027267, 0.04699285700917244, -0.04401576891541481, 0.08987542241811752, -0.0589408278465271, 0.04246128723025322, -0.0755014717578888, 0.001702710404060781, -0.11565999686717987, 0.04377201572060585, -0.01881198212504387, -0.03187563642859459, 0.06906279921531677, 0.019967280328273773, 0.24084097146987915, 0.02311011403799057, -0.036513760685920715, 0.03229833021759987, 0.00557635398581624, -0.0775514617562294, -0.32511016726493835, -0.12978966534137726, 0.0187079980969429, -0.11161036789417267], [0.41620615124702454, -0.49759697914123535, -0.06331417709589005, 0.04371551424264908, -0.017659630626440048, 0.21935777366161346, 0.10153868794441223, 0.011582265608012676, -0.5010331869125366, 0.1920158863067627, -0.10674028843641281, -0.12492562085390091, -0.013427793979644775, -0.1402500420808792, 0.0016919411718845367, -0.05446445196866989, 0.11474618315696716, 0.15028318762779236, -0.08143291622400284, 0.06476686894893646, 0.014855772256851196, 0.3375222980976105, 0.5403798222541809, -0.07580801844596863, 0.23164275288581848, -0.0961388573050499, 0.015917254611849785, -0.04113153740763664, -0.1322142332792282, -0.23264525830745697, -0.0010363170877099037, -0.06308265030384064], [-0.014709231443703175, 0.37462949752807617, 0.06840668618679047, 0.05719447880983353, -0.10562950372695923, 0.08748196065425873, -0.0008179169963113964, -0.012922200374305248, 0.10597167164087296, -0.09129142016172409, -0.09084141999483109, -0.061197761446237564, -0.07829272001981735, 0.13971494138240814, 0.044678203761577606, 0.004011011682450771, 0.03546523675322533, 0.22497868537902832, 0.0965208113193512, -0.05697472393512726, -0.10465427488088608, 0.3833966553211212, 0.38096916675567627, 0.08513469249010086, -0.0077199083752930164, -0.23083527386188507, -0.1179666519165039, 0.018671629950404167, -0.2247179001569748, 0.05379035323858261, 0.0002506666933186352, 0.14488986134529114], [0.031209170818328857, -0.010068788193166256, -0.008388146758079529, 0.1861623227596283, -0.06254773586988449, -0.020940933376550674, -0.011610695160925388, -0.008289829827845097, 0.04913138970732689, 0.08290446549654007, -0.04432497173547745, 0.05724647641181946, 0.039141081273555756, -0.1245817095041275, -0.10288607329130173, 0.005246945656836033, -0.1461639255285263, -0.03203808143734932, -0.05719736963510513, -0.02449570968747139, -0.02489655464887619, 0.021642152220010757, 0.22949421405792236, -0.01746019721031189, -0.008912651799619198, -0.15720970928668976, 0.034344788640737534, -0.019336353987455368, -0.5076965689659119, -0.24859656393527985, 0.007760575972497463, -0.18391720950603485], [-0.026934348046779633, -0.0552801676094532, -0.006820912007242441, 0.19643893837928772, -0.10677284002304077, 0.007623701822012663, 0.024720599874854088, 0.006952016614377499, 0.07931803911924362, 0.05990272015333176, 0.009404468350112438, 0.15151524543762207, -0.051682211458683014, -0.11260790377855301, -0.08122758567333221, 0.0830787792801857, -0.05882249400019646, 0.04738257825374603, -0.147527277469635, -0.01852278597652912, 0.009828954935073853, 0.12127269804477692, 0.3282230496406555, 0.028367210179567337, -0.057900719344615936, -0.20785678923130035, -0.039439503103494644, -0.051318928599357605, -0.41986507177352905, -0.22725290060043335, 0.000806694442871958, -0.14212389290332794], [-0.2712642550468445, -0.23043455183506012, 0.021612470969557762, 0.04820874705910683, 0.01663328893482685, -0.07265014201402664, 0.03333195298910141, 0.03155050426721573, 0.34784266352653503, 0.0949699804186821, 0.08212205022573471, -0.03473646193742752, 0.043627120554447174, 0.018852055072784424, -0.24726958572864532, 0.07205352932214737, -0.018746258690953255, -0.33899253606796265, 0.3396141827106476, -0.006969488691538572, 0.040195394307374954, -0.10632069408893585, -0.17112566530704498, -0.02373761124908924, 0.03257434815168381, -0.22268807888031006, 0.001596388523466885, -0.0349884033203125, -0.29034173488616943, -0.060663968324661255, -0.02633371762931347, -0.06127438694238663], [0.13435305655002594, -0.0006641574436798692, -0.028365448117256165, 0.13385146856307983, -0.012138490565121174, 0.0003951519029214978, -0.0041725849732756615, -0.026334568858146667, 0.0726916566491127, 0.023809093981981277, 0.03737107291817665, 0.07792553305625916, 0.020272361114621162, -0.0059179700911045074, 0.08338848501443863, -0.0076256003230810165, 0.10487927496433258, -0.021571476012468338, -0.09727610647678375, -0.0059195999056100845, -0.01741909235715866, 0.18732507526874542, 0.21339483559131622, 0.14992351830005646, -0.03254266455769539, 0.18643085658550262, 0.17825546860694885, -0.12673409283161163, -0.27611321210861206, 0.4610496163368225, 0.01770687662065029, -0.11840088665485382], [-0.2393520027399063, -0.3436029553413391, -0.02876136265695095, 0.10911212861537933, -0.04642171785235405, 0.1827380359172821, -0.0009659989736974239, 0.029246363788843155, 0.06382010877132416, 0.21328073740005493, 0.020668406039476395, -0.055669695138931274, -0.0255765151232481, -0.06602634489536285, -0.019436664879322052, 0.013166267424821854, 0.04263989254832268, 0.10487451404333115, -0.20602892339229584, -0.02454526536166668, -0.028759634122252464, -0.1115570068359375, 0.3067006766796112, -0.03301672264933586, -0.04276879131793976, 0.08262654393911362, 0.1386662721633911, -0.005178460385650396, -0.2921575605869293, -0.30382758378982544, -0.025755971670150757, -0.07627424597740173], [-0.018014006316661835, -0.017142195254564285, -0.10273325443267822, -0.05899561569094658, 0.02292143926024437, -0.2947416603565216, 0.003739789826795459, -0.005241375416517258, 0.079526387155056, 0.031554367393255234, -0.022873861715197563, -0.22010384500026703, 0.053644292056560516, -0.037259310483932495, -0.01927970163524151, 0.03977241739630699, -0.15782836079597473, -0.025734273716807365, 0.1543525755405426, -0.0064806281588971615, 0.02293996885418892, 0.21319828927516937, -0.035127684473991394, -0.01562911458313465, 0.04898957908153534, -0.1439812332391739, 0.014541263692080975, -0.17708230018615723, -0.43459731340408325, -0.08408959954977036, -0.0031480644829571247, -0.10321856290102005], [-0.2414008378982544, -0.17885154485702515, -0.007685489486902952, 0.006692818831652403, 0.002865453017875552, 0.10469748824834824, -0.026381097733974457, -0.01063657645136118, 0.18873345851898193, 0.02032279781997204, 0.053938645869493484, 0.04029885306954384, 0.03078857809305191, -0.013533566147089005, 0.044793758541345596, -0.008577005006372929, -0.09041191637516022, 0.11007676273584366, -0.05118270218372345, 0.014636976644396782, -0.02085763029754162, -0.3491397202014923, 0.11713467538356781, -0.007937566377222538, -0.05852543190121651, 0.03989137336611748, 0.31713205575942993, 0.1426997184753418, 0.11366397142410278, -0.2370849996805191, 0.007212773896753788, 0.04381425306200981], [-0.01753750815987587, 0.006169992033392191, 0.0068451715633273125, 0.04686358943581581, -0.00935943704098463, 0.02008131332695484, 0.0036176082212477922, 0.0021928991191089153, -0.0003364665899425745, 0.013444256037473679, -0.002538158791139722, -0.009896617382764816, -0.014803600497543812, -0.002228261437267065, -0.0020878289360553026, -0.011278691701591015, 0.012838435359299183, 0.0035602001007646322, -0.0030951714143157005, -0.004506665747612715, -0.005014387890696526, -0.014678300358355045, 0.042982205748558044, -0.004988126456737518, -0.0015942867612466216, -0.010069913230836391, -0.00786502007395029, 0.004365989007055759, -0.06367626786231995, -0.01210352499037981, -0.002153586596250534, 0.003398158587515354], [-0.11731168627738953, -0.14709889888763428, 0.019140271469950676, 0.21607162058353424, -0.05440634861588478, 0.0465131476521492, -0.07157491147518158, -0.010911457240581512, 0.08209472894668579, 0.1407347321510315, -0.034160371869802475, 0.1096997931599617, 0.03183536231517792, 0.019295601174235344, -0.10762278735637665, -0.013218089938163757, -0.1890854686498642, 0.06962112337350845, -0.08219489455223083, -0.007614578120410442, 0.001743219792842865, -0.07709039747714996, 0.4513772130012512, 0.06531450897455215, 0.014844540506601334, -0.016677701845765114, 0.02013126015663147, 0.008823568001389503, -0.24120301008224487, -0.26810160279273987, -0.0017558927647769451, -0.22205016016960144], [-0.4543117582798004, -0.6409726142883301, 0.04742693901062012, -0.2150217890739441, 0.061795976012945175, 0.15619976818561554, -0.12944501638412476, 0.10887452214956284, -0.4235403835773468, 0.14956629276275635, 0.09113809466362, -0.3529617190361023, 0.011367629282176495, -0.0299498550593853, -0.24076977372169495, 0.051810260862112045, -0.4031076431274414, -1.1187431812286377, -1.4428132772445679, -0.14255444705486298, 0.010148800909519196, 0.19126127660274506, 1.1692938804626465, -0.09948939830064774, -0.008158721029758453, -0.1791556179523468, 0.6283667087554932, 0.12089431285858154, -0.19799083471298218, -0.11374471336603165, -0.008221035823225975, -0.03894110396504402], [0.48126277327537537, 0.30395272374153137, -0.03740870952606201, 0.13879145681858063, 0.02590189501643181, -0.1473962813615799, 0.041725292801856995, -0.0327380895614624, 0.3152438700199127, -0.07706460356712341, 0.0629483163356781, 0.1533420830965042, -0.011548690497875214, 0.036862991750240326, 0.02594703435897827, -0.020004406571388245, 0.19846634566783905, -2.0343236923217773, 0.42731887102127075, 0.06232495978474617, 0.05837436765432358, 0.040369123220443726, -0.6285104751586914, 0.02477370575070381, 0.032496076077222824, 0.03540587052702904, -0.3545745015144348, -0.12008241564035416, 0.07307608425617218, 0.29670101404190063, 0.0025386607740074396, 0.03402327746152878], [-0.03520753234624863, -0.02661817893385887, 0.6624757647514343, 1.1969307661056519, -0.011118118651211262, 0.048743728548288345, -0.1367868334054947, 0.06071080267429352, 0.4018919765949249, -0.054110921919345856, 0.1326790601015091, -0.16863738000392914, 0.08901703357696533, -0.7814949154853821, -0.27163460850715637, 0.0918077751994133, -0.26346009969711304, 0.28755855560302734, -0.09150104969739914, -0.12385828793048859, -0.1572147011756897, 0.06460818648338318, 0.0031760502606630325, -0.6166549921035767, -0.14967940747737885, -0.35602185130119324, -0.0860745906829834, 0.03097469173371792, 0.000978653784841299, -0.07916079461574554, 0.007150729186832905, 0.13912223279476166], [-0.181442528963089, 0.09539417177438736, -0.6641384363174438, 0.600802481174469, -0.04573589563369751, -0.03794339671730995, -0.023177430033683777, 0.05870449170470238, -0.24667903780937195, 0.5463353395462036, -0.031787313520908356, 0.03949365019798279, 0.3477570712566376, -0.2508678436279297, 0.4675767123699188, 0.22138987481594086, 0.5378396511077881, -0.13538216054439545, 0.07048065215349197, -0.046324197202920914, 0.48081716895103455, 0.10291846841573715, -0.3353624939918518, -0.5922080874443054, -0.1643589437007904, 0.23249903321266174, 0.3295489549636841, 0.36119428277015686, 0.18757057189941406, 0.1500645875930786, -0.048871930688619614, -0.9790948033332825], [-0.022159518674016, -0.17987951636314392, -0.03994246572256088, -0.022240420803427696, 0.05550611764192581, -0.05361820384860039, 0.013235051184892654, -0.001297850627452135, 0.1432214379310608, 0.14729191362857819, 0.0796186551451683, -0.020025238394737244, 0.04451480507850647, -0.006888911128044128, -0.013982483185827732, 0.05023350566625595, 0.04955945163965225, -0.016624363139271736, 0.016083456575870514, 0.024638893082737923, 0.08690619468688965, -0.07826753705739975, -0.058122873306274414, -0.0598386749625206, 0.17748552560806274, 0.030023926869034767, 0.22105412185192108, 0.08225981146097183, -0.12568071484565735, 0.010178348049521446, -0.0074276612140238285, -0.06593301892280579], [-0.23452110588550568, 0.020809242501854897, -0.08258961141109467, 0.18206998705863953, 0.04720189422369003, 0.41151195764541626, -0.0005049132159911096, -0.09750955551862717, -0.19136887788772583, 0.0017074912320822477, 0.17483721673488617, 0.09097827970981598, -0.12340415269136429, -0.029640529304742813, -0.12695194780826569, -0.21702422201633453, -0.03653581067919731, 0.14295953512191772, 0.03975797817111015, 0.13509182631969452, -0.10978925228118896, -0.01849726028740406, 0.17233745753765106, 0.36887553334236145, 0.239436075091362, -0.19280089437961578, -0.13875843584537506, 0.24560120701789856, 0.247264564037323, 0.019988665357232094, 0.09135998785495758, 0.13666187226772308], [0.007787995506078005, -0.011867379769682884, 0.2878550887107849, -0.055140286684036255, -0.04548637941479683, 0.037094566971063614, 0.8213597536087036, 0.01028726901859045, -0.11902984976768494, 0.13509725034236908, 0.03328191116452217, 0.03286381810903549, -0.03307042643427849, -0.7299928665161133, 0.0044007436372339725, -0.02785308286547661, 0.149098739027977, -0.1947012096643448, -0.12007734179496765, 0.014122377149760723, 0.7556489109992981, -0.0019089694833382964, 0.02144416607916355, 0.19575798511505127, 0.04952457547187805, 0.06610135734081268, 0.03949274867773056, 0.05126184970140457, -0.143474742770195, -0.011466830037534237, -0.01809978112578392, 0.5352708697319031], [-0.08362819999456406, 0.03372090309858322, 0.05037015303969383, -0.05466078966856003, 0.006518523674458265, -0.10095403343439102, -0.024265944957733154, 0.07493770867586136, 0.007068552542477846, 0.0740145593881607, -0.022020934149622917, 0.10871877521276474, 0.006549271289259195, 0.019019588828086853, 0.018054349347949028, 0.1341794729232788, -0.005267797969281673, 0.05536266416311264, -0.05538136139512062, -0.014885189011693, 0.01598358526825905, 0.0465921126306057, -0.02549315057694912, -0.02822158671915531, 0.13155855238437653, 0.037707097828388214, 0.07958984375, 0.03815590962767601, -0.02866818755865097, -0.030410589650273323, -0.1128353402018547, 0.04283318296074867], [-0.5745992064476013, -0.3026949465274811, 0.09885989129543304, 0.4715164005756378, 0.1472969949245453, 0.23810817301273346, -0.05001319572329521, 0.01556328497827053, -0.8228156566619873, 0.07084934413433075, 0.24991564452648163, -0.19855420291423798, -0.040868308395147324, -0.05850614979863167, 0.24169397354125977, -0.007645635865628719, -0.47872304916381836, 0.18324345350265503, 0.9562641978263855, 0.014767404645681381, -0.06038625165820122, 0.12140404433012009, -0.42833346128463745, -0.05215013027191162, 0.0866144672036171, 0.2902323603630066, 0.0841832384467125, -0.18138043582439423, -0.025282559916377068, 0.42943862080574036, -0.011080805212259293, 0.18496087193489075], [-0.22748856246471405, -0.13517481088638306, -0.19038626551628113, -0.613301694393158, 0.18210530281066895, -0.06448609381914139, -0.17239242792129517, 0.033153750002384186, -0.2490222454071045, 0.8548592329025269, 0.2090190052986145, -0.016970383003354073, 0.011822441592812538, -0.024628430604934692, 0.012972022406756878, -0.050592463463544846, -0.9125168323516846, 1.1023695468902588, 0.17811182141304016, 0.09018850326538086, 0.9108750224113464, 0.04994402080774307, 0.13246971368789673, -0.06381070613861084, 0.04646781459450722, -0.11731419712305069, -0.0516279973089695, 0.1871844381093979, 0.14025583863258362, 0.030468527227640152, 0.004423097707331181, -0.37057775259017944], [-0.008428816683590412, -0.23133543133735657, 0.3521890938282013, -0.13173002004623413, -0.012443232350051403, 0.19280414283275604, 0.009697200730443, -0.11490228772163391, 0.6852797269821167, 0.11913718283176422, 0.07343873381614685, 0.008461552672088146, -0.10032342374324799, -0.021875109523534775, -0.07221315801143646, -0.03835754841566086, 0.2524670958518982, -0.04860096424818039, 0.015557751059532166, 0.03977559879422188, -0.15130575001239777, 0.06804317981004715, -0.06995709240436554, -0.08051766455173492, 0.10129249840974808, -0.15627025067806244, 0.13642185926437378, 0.21896633505821228, -0.04851635545492172, 0.22475415468215942, 0.10294003784656525, -0.0238961111754179], [0.5242101550102234, 0.03945871815085411, 0.3682464063167572, 0.2987455129623413, -0.1170627549290657, 0.5420085191726685, -0.06488513946533203, -0.14213071763515472, -0.025673629716038704, -0.8163342475891113, -0.08592823892831802, -0.4690935015678406, -0.6464089751243591, -0.04073916748166084, 0.2703951299190521, -0.3869622051715851, -1.6556068658828735, -0.880552351474762, 0.08514732867479324, 0.1328534036874771, -0.25846052169799805, -0.2991873323917389, 0.2475326955318451, 0.9962835311889648, 0.1452202945947647, 0.17952482402324677, -0.3989099860191345, 0.3229529559612274, 0.5458853840827942, 0.16344554722309113, 0.10645545274019241, 0.8785625696182251], [-0.09191183000802994, -0.11126753687858582, -0.10242968797683716, 0.025274893268942833, -0.016571924090385437, 0.1639290750026703, 0.04992617666721344, -0.027179135009646416, 0.02297016605734825, -0.09553507715463638, -0.02266642078757286, 0.031928304582834244, 0.4658510088920593, -0.05230645462870598, -0.03720217943191528, 0.06918773055076599, -0.007426964584738016, 0.13399596512317657, 0.1251116245985031, -0.0936964601278305, 0.03332185745239258, 0.030104871839284897, 0.13870501518249512, 0.03102867119014263, -0.33300578594207764, -0.0748671442270279, -0.013877011835575104, 0.0052299643866717815, 0.024260321632027626, 0.002728183288127184, 0.09171244502067566, -0.1411752700805664], [-0.19781124591827393, -0.15184451639652252, 0.7007816433906555, 0.10738084465265274, -0.09153144061565399, 0.119611956179142, 0.542787492275238, 0.030293330550193787, 0.008275258354842663, -0.14709177613258362, -0.0652536079287529, -0.03067205287516117, -0.01876872591674328, 0.8134521842002869, -0.13125468790531158, 0.008316711522638798, 0.28030720353126526, 0.04927077516913414, 0.08704428374767303, 0.01503960695117712, 0.30479225516319275, 0.06144125759601593, 0.17768701910972595, 0.12044841796159744, 0.019162684679031372, -0.04465692490339279, 0.03271891549229622, 0.2396075427532196, 0.027098430320620537, -0.05785958841443062, -0.01736867055296898, -0.22496598958969116], [0.4629228115081787, -0.06925297528505325, -0.20945510268211365, -0.13198214769363403, 0.08936579525470734, -0.30870452523231506, 0.08673107624053955, 0.003044991986826062, -0.14694026112556458, -0.20293742418289185, -0.013217119500041008, -0.13086338341236115, 0.15582525730133057, -0.10188186913728714, 0.16002927720546722, 0.10206644982099533, 0.18031828105449677, -0.1676962971687317, -0.7736183404922485, -0.036735642701387405, -0.00014765684318263084, -0.3526553213596344, -0.011087337508797646, -0.01417912170290947, -0.03500927612185478, -0.054651807993650436, -0.25514909625053406, 0.03661021590232849, 0.2884852886199951, 0.17868439853191376, 0.015911957249045372, -0.055621203035116196], [-0.04116726294159889, 0.046272650361061096, 0.07653656601905823, -0.03999866545200348, 0.09272412210702896, -0.14989252388477325, 0.0030800998210906982, 0.21116404235363007, 0.043552618473768234, 0.02090097963809967, 0.07069709151983261, 0.21812085807323456, 0.25449782609939575, 0.023224929347634315, 0.005100960377603769, 0.3160853385925293, 0.07971780002117157, -0.010596461594104767, -0.007906489074230194, 0.003963986877351999, -0.006513649597764015, 0.04724377766251564, -0.03633783012628555, -0.09091901034116745, 0.05055781453847885, 0.10061211884021759, 0.11976800858974457, 0.004077195655554533, -0.020040590316057205, -0.08849397301673889, -0.23462578654289246, 0.012356508523225784], [-0.21170178055763245, -0.2089456170797348, 0.1579846739768982, -0.2282426357269287, -0.1355947107076645, 0.19156138598918915, -0.2757648229598999, -0.013536287471652031, -0.396527498960495, 1.0770238637924194, 0.1900816410779953, 0.31057435274124146, -0.11589402705430984, -0.35900387167930603, -0.025099990889430046, -0.014408559538424015, 0.5009504556655884, 0.21337813138961792, -0.3307276964187622, -0.031676605343818665, -0.4228980243206024, 0.013388815335929394, 0.4913256764411926, 0.4091315269470215, -0.016648076474666595, 0.014846984297037125, 0.06282350420951843, 0.6464636921882629, -0.24723877012729645, -0.04559963569045067, 0.0421576127409935, -0.6436836123466492], [-1.282082200050354, 0.814822256565094, 0.18620900809764862, 0.1269599348306656, 0.10295332968235016, 0.0887761116027832, -0.07354066520929337, 0.02158026583492756, 0.14348548650741577, -0.31633856892585754, 0.138982355594635, -0.07467842847108841, -0.031963419169187546, 0.03101428784430027, -0.2580118775367737, -0.07613631337881088, -0.5439926385879517, 1.2526590824127197, -0.38513895869255066, 0.04017788916826248, -0.11297948658466339, -0.7128920555114746, 0.022650085389614105, 0.002030140021815896, 0.08731122314929962, -0.394894540309906, 0.41921117901802063, 0.250196248292923, -0.10655639320611954, -0.15363556146621704, 0.027264468371868134, 0.29360032081604004], [0.3007782995700836, -0.44886142015457153, -0.059590671211481094, -0.24747490882873535, -0.09159187972545624, -0.011325808241963387, 0.05429013818502426, 0.017696084454655647, -0.32753920555114746, -0.3073045015335083, -0.2164662480354309, 0.6481044888496399, -0.05451560020446777, -0.21321670711040497, -0.2500806748867035, -0.05513409152626991, -0.17306527495384216, -0.08438772708177567, 0.41585972905158997, 0.0306490957736969, -0.18064501881599426, 0.06346011161804199, -0.14663667976856232, 0.06999120116233826, 0.018641503527760506, 0.09251070767641068, 1.4383469820022583, 1.051373839378357, -0.35375985503196716, 0.19235219061374664, 0.01827453449368477, 0.2885628640651703], [-0.005726567003875971, -0.05586070194840431, 0.06105523183941841, 0.0033821859396994114, 0.05858811363577843, 0.18790759146213531, -0.06849025934934616, -0.03444017842411995, 0.0005937287351116538, 0.04387493431568146, -0.022003494203090668, -0.12867134809494019, 0.10902172327041626, -0.03018927574157715, 0.07081539183855057, -0.03077562525868416, -0.06985604763031006, -0.10885469615459442, -0.037175796926021576, 0.09723740816116333, 0.007305733393877745, -0.09185733646154404, 0.029536424204707146, 0.06538211554288864, 0.2564789950847626, 0.028976717963814735, -0.021386995911598206, -0.042554713785648346, -0.05786916986107826, 0.01108056865632534, 0.03951048105955124, -0.0147057194262743], [-0.09771283715963364, -0.05604236200451851, 0.2762075662612915, -0.7214789390563965, 0.06154952943325043, -0.030114855617284775, -0.789696455001831, -0.019746067002415657, -0.1612197905778885, -0.9321563839912415, -0.022597895935177803, 0.08805635571479797, -0.0952407494187355, -0.38607993721961975, 0.01076902449131012, -0.03252209722995758, 0.370048850774765, -0.14516453444957733, 0.234496608376503, 0.041344814002513885, 0.7443094849586487, -0.0036265759263187647, 0.06813162565231323, 0.2271401435136795, 0.07531972974538803, 0.020259926095604897, -0.011682355776429176, -0.0163114070892334, 0.10730347037315369, 0.035006675869226456, 0.02125825360417366, -0.4488988220691681], [0.01787298172712326, -1.345323085784912, 0.05534333363175392, -0.05862317234277725, 0.08481665700674057, -0.24833182990550995, -0.058695804327726364, -0.0055992030538618565, -0.2865771949291229, 0.16674932837486267, 0.19565430283546448, 0.09001245349645615, 0.16382813453674316, 0.05406263470649719, 0.017757240682840347, -0.00491173192858696, -0.04499798268079758, 0.2474358081817627, -0.11061850190162659, 0.05913769453763962, 0.028586657717823982, -0.07467463612556458, 0.33278658986091614, -0.18716196715831757, 0.027858708053827286, 0.4269058406352997, 0.39956608414649963, -0.04232564568519592, 0.21823863685131073, 0.10057486593723297, -0.00568030122667551, -0.07880561798810959], [-0.04461930692195892, -0.04791281744837761, 0.21517294645309448, 0.6851665377616882, 0.11882194876670837, 0.13869145512580872, -0.12953993678092957, 0.09511592239141464, 1.0699418783187866, 0.09261606633663177, 0.3091522753238678, 0.2277442216873169, 0.060000017285346985, 0.1515922099351883, -0.9103316068649292, 0.0036454724613577127, 0.0028397475834935904, 1.797404408454895, -1.2513372898101807, 0.03844669088721275, 0.11993517726659775, 0.2909553647041321, -0.317598819732666, 0.006104577332735062, 0.12675656378269196, -0.92308109998703, 0.1410863697528839, -0.09078863263130188, -0.3385659158229828, 0.007358314469456673, -0.013685911893844604, 0.1406005173921585], [0.10336537659168243, 0.09526331722736359, 0.9178517460823059, 0.0014902378898113966, -0.09203837811946869, -0.20956391096115112, -0.2615036070346832, 0.005830580834299326, -0.0035063535906374454, 0.15644416213035583, -0.22101670503616333, -0.25520309805870056, 0.12374014407396317, -0.01240088976919651, 0.10243789106607437, 0.014631843194365501, -0.1368873417377472, -0.3977411091327667, -0.24536561965942383, -0.010992920957505703, -0.19167232513427734, 0.016443217173218727, -0.41286325454711914, 0.45891883969306946, -0.10282250493764877, 0.18023444712162018, 0.14598087966442108, -0.045624587684869766, -0.06378060579299927, 0.08742789179086685, -0.053803615272045135, 0.12935346364974976], [0.0427793450653553, 0.00654737139120698, 0.08770162612199783, 0.03234546259045601, 0.13547858595848083, 0.23470750451087952, -0.017869940027594566, 0.06398457288742065, 0.0652708187699318, 0.008233482949435711, -0.0021784796845167875, -0.12127823382616043, 0.2298065721988678, -0.12874913215637207, 0.04898460581898689, 0.09122662991285324, -0.06557860970497131, -0.022963831201195717, 0.036343615502119064, 0.20865245163440704, -0.05450805276632309, 0.0200958251953125, 0.05190359428524971, 0.12059412151575089, 0.43104231357574463, 0.03562292456626892, -0.03659066930413246, 0.011112788692116737, -0.09788814932107925, -0.060269951820373535, -0.05554812401533127, -0.04867186397314072], [0.33048272132873535, 0.14507102966308594, 0.01351960189640522, 0.019461939111351967, 0.13959695398807526, -0.4213161766529083, -5.753387449658476e-05, 0.026155393570661545, -0.2574668228626251, -0.09703145176172256, 0.1500413715839386, 0.22068360447883606, 0.016777098178863525, 0.28728187084198, 0.36301785707473755, 0.06746947020292282, 0.1782972663640976, 0.5434647798538208, -0.19384020566940308, 0.021847937256097794, -0.01450091041624546, -0.44994738698005676, 0.21797814965248108, -0.040822502225637436, 0.2396070659160614, 0.2998649477958679, 0.017180783674120903, 0.08362346887588501, 0.18626722693443298, 0.510997474193573, -0.02057572640478611, 0.1687338650226593], [1.917772650718689, -2.4407296180725098, -0.01361602172255516, -0.29851824045181274, 0.012915287166833878, -0.2849002182483673, -0.019846927374601364, -0.026868345215916634, -0.7747133374214172, 0.5861833095550537, 0.0817485973238945, -0.32262107729911804, -0.050833746790885925, 0.13415633141994476, 0.26564472913742065, 0.0374532975256443, 0.5634130239486694, 1.1542034149169922, 0.5449707508087158, -0.02430068887770176, 0.23339247703552246, 1.2957878112792969, 0.5869415998458862, 0.03647809103131294, 0.006300221662968397, 0.7375925183296204, 0.4408971965312958, -0.82843416929245, 0.46107131242752075, -0.13878843188285828, -0.023830899968743324, -0.23305059969425201], [0.6143289804458618, 0.28583598136901855, -0.13522440195083618, 0.1714009940624237, -0.0874955803155899, 0.3293001055717468, 0.014826455153524876, -0.06715065985918045, 0.5126683712005615, -0.0009516972932033241, -0.039968278259038925, 0.013399647548794746, -0.03416108340024948, -0.23403754830360413, 0.1613924205303192, 0.010913023725152016, -0.5485141277313232, -0.2696094810962677, -0.0874783992767334, -0.12608902156352997, 0.2916410565376282, -0.2124691605567932, -0.05406802520155907, 0.3920954763889313, -0.12503361701965332, 0.07299958914518356, 0.01734047941863537, 0.40963825583457947, 0.29217463731765747, 0.04472968354821205, 0.006208600476384163, -0.4901810884475708], [-0.18816402554512024, -0.1853250116109848, -0.20056290924549103, -0.08555034548044205, 0.013836945407092571, -0.23908916115760803, 0.006419606041163206, -0.03248320147395134, 0.11639979481697083, -0.43274611234664917, -0.1397300362586975, -0.040568530559539795, -0.027198076248168945, -0.060934457927942276, 0.07336671650409698, -0.08833064138889313, -0.42733436822891235, 0.006230139639228582, 0.19586816430091858, 0.056594908237457275, 0.0800032988190651, -0.032031480222940445, -0.5996453166007996, -0.015743456780910492, -0.023287979885935783, 0.08041991293430328, -0.1867496818304062, -0.2412828654050827, 1.0597138404846191, -0.03824368864297867, 0.03075113333761692, -0.0887582078576088], [0.2729092240333557, 0.18886303901672363, -0.10640032589435577, 0.02887384407222271, 0.00243941368535161, -0.17385174334049225, -0.013211019337177277, -0.015558325685560703, -0.1840628981590271, 0.007048620842397213, -0.10345452278852463, -0.02296227589249611, 0.005965191405266523, -0.08091576397418976, -0.09019461274147034, 0.015886442735791206, 0.15908744931221008, -0.5307683944702148, 0.26373735070228577, 0.023743847385048866, 0.009007799439132214, 0.22233940660953522, -0.09574641287326813, -0.015859069302678108, 0.0794379934668541, 0.19714896380901337, -0.3477926254272461, -0.044102743268013, -0.03510897979140282, 0.4284377098083496, 0.0008373378659598529, 0.06583072990179062], [0.03421986103057861, -0.02856520563364029, -0.016870174556970596, 0.02813585475087166, -0.014754551462829113, 0.13237051665782928, 0.007251696195453405, -0.10165183991193771, 0.00896611250936985, -0.06101192161440849, 0.00821615569293499, -0.06593238562345505, 0.04304482787847519, -0.017427414655685425, 0.006732448469847441, -0.16371898353099823, -0.0016713851364329457, 0.004228551406413317, 0.061127230525016785, 0.04797196760773659, -0.01056819036602974, -0.02272450365126133, 0.04633273929357529, -0.0016491839196532965, -0.13767123222351074, -0.03717141970992088, 0.0021002243738621473, -0.019415495917201042, -0.01012261863797903, 0.033328451216220856, 0.09888791292905807, -0.06045147776603699], [0.06843584775924683, 0.04575321078300476, -0.007321492303162813, 1.0376954078674316, -0.023218343034386635, 0.05943289026618004, -0.7454230189323425, 0.031006308272480965, 0.1858433485031128, 0.15777800977230072, 0.01764634996652603, -0.03643711283802986, 0.029656164348125458, 0.2736709713935852, -0.03603510186076164, 0.029170222580432892, 0.4179643988609314, -0.32733455300331116, -0.17909565567970276, -0.0554601289331913, 0.3815848231315613, -0.024063581600785255, 0.09833607822656631, 0.10163945704698563, -0.039369676262140274, -0.047192368656396866, 0.00933731161057949, -0.029708735644817352, 0.0017775685992091894, -0.10077276080846786, -0.045289307832717896, 0.6826963424682617], [0.09247399866580963, 0.1623946577310562, -0.01799795962870121, 0.08241444081068039, -0.031073078513145447, 0.0022959879133850336, -0.004956000484526157, 0.0006787141901440918, -0.08763556182384491, 0.05023699253797531, -0.07876983284950256, 0.024990728124976158, 0.038012340664863586, -0.013845419511198997, 0.05165882036089897, 0.009223679080605507, 0.01958027295768261, 0.039143480360507965, -0.017669005319476128, -0.025727955624461174, 0.027272120118141174, 0.2514250874519348, 0.10813449323177338, -0.03656986355781555, -0.006074643228203058, -0.0869145318865776, -0.04435928165912628, -0.021136580035090446, -0.22818037867546082, 0.06618599593639374, 0.0062200711108744144, -0.039787959307432175], [-0.6664408445358276, 0.4697033166885376, 0.004611477721482515, 0.09235400706529617, 0.05354583263397217, 0.11395059525966644, 0.033392228186130524, -0.00540587306022644, 0.5907219052314758, 0.08773617446422577, 0.17736420035362244, -0.00655991630628705, -0.14101359248161316, 0.021801292896270752, 0.0681741014122963, -0.04051758721470833, -0.01371838804334402, 0.044471625238657, 0.1751546561717987, 0.01952343061566353, 0.03343895822763443, -0.6677138805389404, 0.004004705231636763, 0.06000745669007301, 0.0829506441950798, 0.1045597493648529, -0.010272220708429813, -0.18583425879478455, -0.5749198198318481, 0.19836482405662537, 0.010775649920105934, 0.0697026252746582], [0.02324683591723442, -0.060000479221343994, 0.03990209102630615, 0.09007500857114792, -0.027491474524140358, -0.0053561776876449585, -0.056675806641578674, -0.021400906145572662, 0.06929274648427963, -0.04250641167163849, 0.008812355808913708, 0.05498130992054939, -0.06683842092752457, 0.06905339658260345, 0.078019879758358, -0.008571526035666466, -0.005509712267667055, -0.019861793145537376, 0.016663897782564163, -0.0060438914224505424, 0.040263574570417404, -0.02804332785308361, 0.07305243611335754, -0.011359337717294693, -0.04495909810066223, 0.03940528258681297, -0.055692825466394424, -0.05094771459698677, -0.04512299597263336, -5.731257260777056e-05, 0.0027818328235298395, 0.021943146362900734], [0.052826911211013794, -0.005615551024675369, 0.11696672439575195, 0.02359677106142044, 0.0018592599080875516, -0.013018278405070305, -0.05502817779779434, 0.03373065963387489, -0.03492095693945885, -0.1356852501630783, -0.05351807177066803, -0.1418679654598236, 0.11747201532125473, 0.02775844745337963, 0.10885584354400635, 0.04436925798654556, -0.0263773612678051, 0.2138010561466217, -0.03160093352198601, 0.004526517353951931, -0.03709377720952034, -0.04544953256845474, -0.04309752956032753, -0.04109915718436241, -0.019673224538564682, 0.16581958532333374, 0.027617143467068672, 0.014753798022866249, 0.009353192523121834, 0.04700764641165733, -0.03744642809033394, 0.05121026188135147], [0.023747028782963753, 0.0034412655513733625, 0.00570200989022851, -0.0329594723880291, -0.008028092794120312, -0.01521968748420477, 0.016470318660140038, -0.005112179554998875, 0.03579938784241676, -0.029728500172495842, 0.014810849912464619, 0.048290692269802094, 0.0023849334102123976, -0.04620113968849182, 0.02783125825226307, 0.002383847488090396, -0.01820545643568039, 0.03879430517554283, -0.03946251794695854, -0.012629866600036621, -0.012997955083847046, 0.04768025875091553, 0.03930485248565674, -0.0373653843998909, -0.01467540767043829, -0.040117356926202774, -0.015724368393421173, 0.012583897449076176, 0.009034493006765842, -0.06311957538127899, 0.0036529807839542627, -0.05136534571647644], [-0.12220674753189087, 0.12645617127418518, -0.007967821322381496, -0.022036178037524223, -0.05007201060652733, 0.21932260692119598, -0.025111088529229164, 0.00919555313885212, 0.05068013444542885, 0.10545399785041809, 0.056429650634527206, -0.09240492433309555, 0.002172741573303938, -0.04337412118911743, 0.06416293233633041, 0.009532932192087173, -0.048684000968933105, -0.018741339445114136, -0.16698768734931946, -0.0027095198165625334, 0.004889981355518103, 0.1291893571615219, 0.0515737347304821, 0.03244776651263237, -0.00402199849486351, -0.05023399367928505, 0.0725909024477005, 0.11304823309183121, 0.18970683217048645, 0.09199883788824081, 0.008031458593904972, -0.08086545765399933], [0.025008581578731537, -0.03004978597164154, -0.005864597391337156, -0.0032191250938922167, 0.028549538925290108, -0.04603028669953346, 0.001103303860872984, -0.010735486634075642, -0.004963736515492201, 0.034013863652944565, 0.015422787517309189, -0.006397648248821497, 0.0005813800380565226, -0.05631009861826897, 0.010171902365982533, -0.017026709392666817, 0.07489974051713943, 0.014305071905255318, 0.04594512656331062, -0.008180245757102966, 0.02481035888195038, -0.0191033985465765, -0.02839789353311062, -0.010142456740140915, -0.04697835445404053, -0.046782929450273514, -0.02888093702495098, -0.08580779284238815, 0.0005308376275934279, 0.04973611235618591, 0.00267189578153193, -0.0017985565355047584], [-0.02375718019902706, 0.01898469217121601, 0.004267562180757523, 0.02104119211435318, -0.004494784399867058, -0.0020086588338017464, 0.003301115706562996, 0.002328628906980157, 0.0019314840901643038, 0.00434720516204834, -0.003459029598161578, -0.01069557573646307, -0.0022118205670267344, -0.0038383998908102512, 0.008007151074707508, 0.0013812924735248089, 0.02027219720184803, 0.006763966288417578, -0.007804430555552244, -0.0019873282872140408, -0.0033287270925939083, -0.015550709329545498, 0.015277102589607239, -0.006797135807573795, -0.004971061367541552, 0.004350550472736359, -0.007419317029416561, -0.008578004315495491, -0.03460673242807388, -0.005965314339846373, -0.002514986554160714, -0.00047292839735746384], [0.26279956102371216, -0.03191753476858139, 0.029821185395121574, 0.12716373801231384, -0.019988633692264557, 0.030422043055295944, 0.003915394190698862, 0.0033513193484395742, -0.10222969949245453, 0.04069926217198372, -0.04210897162556648, -0.00663295341655612, 0.056022919714450836, 0.013713872991502285, -0.03686663135886192, 0.0002559495042078197, 0.025108765810728073, 0.053692419081926346, -0.019349342212080956, -0.013134344480931759, -0.015284375287592411, 0.2048572301864624, 0.20478320121765137, -0.03881573677062988, 0.021394921466708183, -0.1553647369146347, 0.044212982058525085, 0.0046017104759812355, -0.17675480246543884, -0.04479429870843887, -0.003868716536089778, -0.029993552714586258], [0.07813706994056702, -0.09425295144319534, 0.06057186424732208, 0.036385081708431244, 0.003741335589438677, 0.08651819825172424, 0.003733444958925247, -0.010813361033797264, -0.04933232069015503, 0.034232355654239655, -0.003932498395442963, 0.040045566856861115, -0.02568589523434639, 0.045778486877679825, -0.08176002651453018, -0.04629432037472725, -0.02475062757730484, -0.019716929644346237, -0.017332565039396286, 0.008059957064688206, 0.049508772790431976, -0.1619565188884735, 0.053640369325876236, -0.030622627586126328, 0.004360968247056007, -0.026492765173316002, -0.01935606449842453, 0.09455305337905884, -0.059162404388189316, 0.032965950667858124, 0.013011831790208817, 0.03845414146780968], [0.05620792508125305, 0.02185232937335968, 0.03204915300011635, 0.05123429372906685, 0.007513358257710934, -0.08394002169370651, 0.0023913481272757053, -0.006952480413019657, -0.10064243525266647, -0.0006352972704917192, -0.030164137482643127, -0.012145716696977615, 0.03125990927219391, -0.06189911440014839, 0.026620840653777122, 0.00445500249043107, 0.0795537605881691, 0.07026705890893936, -0.037545960396528244, -0.011793936602771282, 0.0016642498085275292, -0.05483609065413475, 0.11177732050418854, -0.01869180053472519, -0.0696450024843216, 0.050202399492263794, 0.07440008968114853, -0.036837607622146606, -0.03977329656481743, 0.08841394633054733, 0.013262568041682243, -0.007070780731737614], [0.0600505955517292, 0.04893878102302551, -0.07594943791627884, 0.08742858469486237, -0.09055416285991669, -0.21534636616706848, 0.011158171109855175, 0.0015737073263153434, -0.04523381590843201, 0.018962550908327103, -0.06459183990955353, -0.019521592184901237, 0.05503533035516739, -0.05944431945681572, -0.22636505961418152, -0.024217968806624413, 0.14708498120307922, 0.06752964854240417, 0.3091154098510742, -0.06226218864321709, 0.0544041246175766, -0.09932944923639297, 0.04145146906375885, -0.0395059660077095, 0.019076470285654068, 0.24528305232524872, -0.018549498170614243, -0.2647676169872284, -0.0034776211250573397, 0.05612930655479431, -0.01841743290424347, 0.038883745670318604], [-0.031107980757951736, -0.007941652089357376, -0.07702461630105972, 0.057793546468019485, -0.022068224847316742, 0.018418394029140472, 0.010034904815256596, -0.010566240176558495, 0.04040582850575447, 0.00220322934910655, -0.014646584168076515, 0.006967918481677771, -0.01784510537981987, 0.006631345022469759, -0.03567884862422943, -0.027382930740714073, -0.011204991489648819, -0.03260919451713562, -0.11899873614311218, -0.012527327053248882, 0.009651781991124153, -0.14080724120140076, 0.007152698468416929, 0.07273182272911072, -0.06840337812900543, 0.04072132706642151, 0.026753969490528107, 0.04363636299967766, -0.16046513617038727, 0.09049080312252045, 0.0054697562009096146, -0.03130239620804787], [-0.1077805757522583, -0.0496167317032814, 0.04381931573152542, 0.09813957661390305, 0.0026298922020941973, -0.04000794142484665, -0.009743398055434227, -0.011721852235496044, -0.000861906970385462, -0.00218396564014256, 0.009591707028448582, 0.01328898873180151, 0.014400479383766651, 0.018461190164089203, -0.010459055192768574, -0.04226678982377052, 0.021095404401421547, -0.0017017802456393838, 0.10692533105611801, 0.008249882608652115, 0.03740508854389191, -0.01487960759550333, -0.015063279308378696, 0.0285209808498621, -0.055663514882326126, 0.052414845675230026, 0.010654411278665066, -0.051579348742961884, 0.02948247641324997, 0.05445953831076622, 0.005696096457540989, 0.04635043069720268], [0.13531826436519623, -0.3861728012561798, 0.045502033084630966, -0.009336973540484905, 0.04767446219921112, -0.11476180702447891, -0.05233367905020714, 0.007453386206179857, 0.02809712290763855, 0.0746336355805397, 0.1390591859817505, -0.04914829507470131, 0.07862242311239243, 0.07214109599590302, -0.2549291253089905, 0.01058474276214838, -0.029499150812625885, -0.26663875579833984, 0.45523279905319214, 0.015714915469288826, 0.0238578412681818, 0.1929699182510376, 0.054211247712373734, -0.060510266572237015, 0.030259650200605392, -0.3439827561378479, 0.2170667052268982, 0.050085198134183884, -0.24927695095539093, 0.01695384457707405, -5.5674940085737035e-05, -0.0016117594204843044], [0.06337354332208633, -0.11289172619581223, 0.0006804362637922168, 0.06307432055473328, -0.007832315750420094, -0.009313573129475117, -0.013748329132795334, 0.006775700952857733, 0.02213839814066887, 0.005839560646563768, 0.0006684330874122679, 0.035758160054683685, -0.008942114189267159, 0.0068859015591442585, 0.02635776996612549, 0.023044459521770477, -0.01713845506310463, 0.034842316061258316, -0.02286165952682495, -0.003335177432745695, -0.022074902430176735, 0.005454440601170063, 0.0991194024682045, 0.028577081859111786, 0.015055004507303238, 0.009994002059102058, 0.019217999652028084, -0.0002945357991848141, -0.10066137462854385, -0.04477929696440697, -0.0056430683471262455, 0.003064887598156929], [-0.002972980495542288, 0.04058971628546715, -0.007038349285721779, 0.06507830321788788, -0.02739860676229, 0.0720396414399147, -0.012251731008291245, -0.018874019384384155, 0.016918335109949112, 0.05730944871902466, -0.0039296927861869335, 0.0014999911654740572, 0.01644696295261383, 0.012924320995807648, 0.016739390790462494, -0.03173641860485077, 0.006724560167640448, 0.04653254151344299, -0.0644034668803215, 0.011922765523195267, -0.08577722311019897, 0.004495339002460241, 0.07496940344572067, -0.025551175698637962, -0.0019349843496456742, -0.04133342206478119, -0.08511965721845627, -0.015532249584794044, -0.005118088331073523, -0.02955825999379158, 0.018417805433273315, 0.011450481601059437], [-0.34116628766059875, -0.09695646911859512, -0.031669553369283676, -0.1187298446893692, -0.02230333350598812, 0.12040203809738159, -0.024455750361084938, 0.00575183006003499, 0.173275887966156, 0.018392765894532204, 0.047190405428409576, 0.10747929662466049, 0.014388731680810452, -0.03925374895334244, 0.12547606229782104, -0.0015510341618210077, -0.025346308946609497, 0.0808514952659607, -0.01794133149087429, 0.003919233568012714, -0.06375150382518768, -0.07773318141698837, 0.07269370555877686, -0.05298510938882828, -0.02551986463367939, 0.15979887545108795, 0.04024631530046463, 0.12177234143018723, -0.24593859910964966, -0.000734438537620008, -0.004205263685435057, 0.06921043992042542], [0.4853973984718323, -0.1416020393371582, -0.11577297747135162, -0.039956171065568924, 0.062106408178806305, -0.05622372776269913, 0.10141734033823013, 0.03406672179698944, -0.6898476481437683, -0.1485394537448883, 0.08829229325056076, 0.0630476325750351, 0.18966028094291687, -0.0477464497089386, -0.9476599097251892, 0.11536383628845215, 0.09197782725095749, 0.19789350032806396, -0.18245859444141388, -0.026105403900146484, -0.05047596991062164, -0.7575531005859375, -0.08676515519618988, -0.05417350307106972, 0.03149638697504997, -0.45637860894203186, -0.17406296730041504, 0.23103944957256317, 0.5584834814071655, -0.17616014182567596, -0.050154559314250946, -0.009021054022014141], [0.007724036928266287, 0.03301560506224632, -0.013355971314013004, -0.03457179293036461, -0.011693921871483326, 0.0034421372693032026, -0.014214054681360722, 0.005241031292825937, -0.043930165469646454, -0.029341476038098335, -0.021519573405385017, 0.02620319277048111, -0.0001542567042633891, -0.0031586037948727608, -0.007100907154381275, -0.0149376867339015, -0.09813621640205383, 0.005900141317397356, -0.040552668273448944, 0.004072624258697033, -0.009469274431467056, 0.04957171157002449, 0.02235354855656624, 0.0009227030677720904, 0.0011221632594242692, 0.017338532954454422, -0.019643230363726616, 0.011241469532251358, 0.03229428082704544, 0.022910477593541145, 0.0006021471926942468, -0.016794221475720406], [-0.04169358313083649, -0.0465008020401001, 0.025254443287849426, 0.05381180718541145, 0.0015216702595353127, -0.014414549805223942, 0.022189294919371605, -0.010265824384987354, 0.018311405554413795, 0.021178875118494034, 0.028560105711221695, 0.020607583224773407, 0.005424876697361469, -0.01266526523977518, 0.03680676221847534, -0.001551996567286551, 0.054176971316337585, 0.02980554662644863, 0.029807889834046364, -0.012357218191027641, -0.028985129669308662, 0.027538133785128593, 0.07239429652690887, -0.019871976226568222, -0.015997013077139854, -0.014082501642405987, -0.00668315589427948, 0.006280058063566685, -0.05667402595281601, -0.022281251847743988, 0.007647632155567408, 0.04095122590661049], [0.4549030065536499, -0.5572651028633118, -0.01162695698440075, 0.20306022465229034, 0.03644291311502457, -0.09680017828941345, 0.05694815143942833, -0.0006781872943975031, -0.26579588651657104, -0.0010961159132421017, -0.0009529977105557919, 0.016154179349541664, 0.04105302318930626, -0.034565191715955734, 0.051731277257204056, -0.018650570884346962, -0.02403901517391205, 0.017193397507071495, 0.04173639789223671, 0.004754966124892235, 0.01675502583384514, 0.4636796712875366, 0.16999340057373047, 0.017899423837661743, 0.04875240474939346, 0.14009883999824524, 0.13606669008731842, 0.06009042635560036, -0.009988327510654926, 0.12721358239650726, 0.0003137383610010147, 0.0016626666765660048], [0.14558281004428864, 0.06149294972419739, 0.04636538401246071, 0.0837525874376297, -0.047737617045640945, 0.017604133114218712, 0.010355779901146889, 0.00633609015494585, -0.052242811769247055, -0.05614078789949417, -0.06961943954229355, -0.01160797942429781, -0.0005454725469462574, 0.0412781722843647, 0.05044597014784813, -0.0028616345953196287, 0.05730172246694565, 0.14686952531337738, -0.11752472817897797, -0.009396189823746681, -0.06769116222858429, 0.27131688594818115, 0.28756240010261536, 0.03296956047415733, 0.04505579546093941, -0.04075852409005165, 0.013227839954197407, 0.023357436060905457, -0.17448143661022186, -0.05053015798330307, -0.00652415631338954, 0.028393585234880447], [-0.03156013414263725, 0.030216319486498833, 0.09885405004024506, 0.06379978358745575, -0.03210987150669098, 0.07628120481967926, -0.0252362173050642, -0.006183764431625605, 0.057008445262908936, 0.05761725828051567, -0.012690718285739422, 0.03523607924580574, 0.06880225241184235, -0.032518789172172546, 0.0015245737740769982, 0.005967068951576948, -0.0053816852159798145, 0.005122271832078695, 0.01797954924404621, -0.0013706519966945052, 0.018011189997196198, 0.13297267258167267, 0.05447237566113472, 0.06864631921052933, 0.022959591820836067, 0.09884006530046463, -0.08807121217250824, -0.1261579692363739, -0.011705746874213219, 0.009579715318977833, 0.002407120307907462, -0.026488330215215683], [-0.04086431488394737, 0.05135584995150566, -0.04367857053875923, 0.032362308353185654, -0.03883860632777214, -1.0029669283539988e-05, -0.04587240517139435, -0.014172575436532497, -0.0013161232927814126, -0.06596638262271881, -0.004364641383290291, -0.004101403057575226, -0.007259179838001728, 0.031002050265669823, -0.056833893060684204, 0.011116351932287216, -0.03127577155828476, -0.01814126968383789, -0.07040612399578094, -0.007251017726957798, 0.03305599465966225, 0.0684271976351738, 0.07999329268932343, 0.07119406014680862, -0.0462571419775486, -0.02011498063802719, -0.0017694036941975355, -0.02965083345770836, -0.13119997084140778, 0.021873559802770615, 0.019501440227031708, -0.014317495748400688], [-0.030456986278295517, -0.17084580659866333, 0.04555360972881317, -0.03841133415699005, 0.004371154587715864, -0.016162781044840813, 0.00463913893327117, 0.019591612741351128, 0.3362571597099304, 0.13504117727279663, 0.09206025302410126, -0.031031452119350433, 0.0304377693682909, 0.04439232498407364, -0.3768954873085022, 0.06615794450044632, -0.059190504252910614, -0.3493976593017578, 0.46557602286338806, -0.01855585351586342, 0.061738111078739166, 0.009038913063704967, -0.21423836052417755, -0.035820767283439636, 0.06220216304063797, -0.5010178685188293, 0.0620945505797863, -0.03251687437295914, -0.21103961765766144, -0.06073509156703949, -0.019451385363936424, -0.0485297366976738], [0.09688740968704224, 0.28396666049957275, -0.09420915693044662, -0.16031613945960999, -0.059439174830913544, -0.04046168178319931, 0.06398665904998779, -0.02629595436155796, -0.20525489747524261, 0.05928003415465355, -0.1111229658126831, 0.22640807926654816, -0.1033661887049675, -0.024470144882798195, -0.12611636519432068, -0.04678042605519295, 0.12213453650474548, -0.05935848876833916, 0.07899978756904602, -0.05662085860967636, 0.021336043253540993, 0.011330166831612587, 0.05620885267853737, -0.000656786491163075, -0.06633836776018143, -0.029052402824163437, 0.14648321270942688, -0.3200840353965759, -0.3352230191230774, 0.4365566074848175, 0.00793999619781971, -0.19664926826953888], [-0.00461169658228755, 0.03617327660322189, -0.0031852133106440306, 0.029405061155557632, -0.02805921994149685, 0.016566317528486252, -0.04488075524568558, -0.015021713450551033, 0.04957937076687813, -0.0024200293701142073, -0.03330448642373085, 0.015403825789690018, 0.14185212552547455, 0.06010175496339798, -0.10952484607696533, -0.024606546387076378, -0.16883665323257446, -0.02286701463162899, 0.08237826079130173, -0.013401275500655174, -0.033506620675325394, -0.12762606143951416, 0.03530726954340935, -0.0038762695621699095, -0.08511308580636978, -0.1281955987215042, 0.03876039385795593, 0.09779925644397736, -0.08880387246608734, 0.06494393944740295, 0.012065116316080093, -0.05864916741847992], [-1.0034722089767456, -0.40439292788505554, -0.07394798845052719, -0.05900916829705238, -0.045086849480867386, -0.3456205129623413, -0.1348566859960556, 0.06267911195755005, 0.538205087184906, 0.17694351077079773, -0.04739931598305702, 0.1767151653766632, 0.2588861584663391, -0.0445641465485096, -0.010174156166613102, 0.09476207196712494, -0.43177130818367004, -0.09110838174819946, 0.34011414647102356, 0.021389545872807503, 0.10687128454446793, -0.09469128400087357, 0.14084844291210175, -0.09119637310504913, 0.039685167372226715, -0.09093250334262848, 0.2526528239250183, 0.05286208912730217, 0.049914490431547165, 0.22433452308177948, -0.0595591701567173, -0.2252049595117569], [-0.2279231995344162, -0.20154985785484314, 0.005881099496036768, -0.03238546475768089, 0.0004817358567379415, 0.10919029265642166, -0.018748443573713303, -0.01578180305659771, 0.18046720325946808, -0.029673459008336067, 0.05869656801223755, 0.05474599450826645, 0.04048500582575798, -0.013183158822357655, 0.08377543836832047, -0.01162524614483118, -0.13346153497695923, 0.1353667974472046, -0.12966525554656982, 0.015507646836340427, -0.03324878588318825, -0.3831839859485626, 0.15758584439754486, -0.0026248497888445854, -0.05677700415253639, 0.0510152205824852, 0.4391707181930542, 0.1695822775363922, 0.13230912387371063, -0.24199746549129486, 0.014497345313429832, 0.04006168991327286], [-0.012908104807138443, 0.009239636361598969, 0.006403640378266573, 0.024351978674530983, -0.007018316071480513, 0.013266662135720253, 0.004929610062390566, 0.0020165699534118176, -0.0007452225545421243, 0.005206346977502108, -0.001076076878234744, -0.007104034535586834, -0.011251353658735752, -0.0008791035506874323, -0.00044456400792114437, -0.00927769485861063, 0.009259006939828396, 0.0035486514680087566, -0.003909560386091471, -0.0035501213278621435, -0.003316675778478384, -0.00625402620062232, 0.026395004242658615, -0.003894228721037507, -0.004080943297594786, -0.0052182297222316265, -0.004941576160490513, 0.0021764272823929787, -0.03292408958077431, -0.009678280912339687, -0.001918725436553359, 0.0026999132242053747], [-0.009417000226676464, -0.05940236151218414, -0.033001858741045, 0.10268285870552063, 0.057932715862989426, 0.048250503838062286, -0.019349034875631332, 0.0017024808330461383, 0.012898832559585571, 0.11038131266832352, 0.030117716640233994, -0.012899989262223244, -0.004904910456389189, -0.03101743571460247, -0.03427165001630783, 0.0009190316777676344, 0.12008879333734512, -0.0006601127097383142, 0.07948765903711319, 0.02820521593093872, 0.06075948104262352, -0.051365867257118225, 0.0980706587433815, -0.02741372585296631, 0.07642915099859238, -0.04454546049237251, 0.13999930024147034, 0.10302314162254333, -0.11819644272327423, -0.017764657735824585, -0.005164035130292177, -0.08084038645029068]], "rec.bias_ih_l0": [0.40664124488830566, -0.7610110640525818, -1.1518720388412476, -2.1784088611602783, -0.11606054753065109, -0.08656984567642212, -1.2965091466903687, 0.030783269554376602, 0.3416627049446106, -1.6784039735794067, -0.04635883867740631, 0.6182734370231628, 0.1245463639497757, -1.3758599758148193, -0.33070623874664307, 0.09480492025613785, -0.9370531439781189, -3.0672762393951416, -2.121988296508789, -0.06593792140483856, -1.0344239473342896, -0.6109580993652344, 0.17528444528579712, -0.6631963849067688, 0.0365574024617672, -0.2520831823348999, 0.06030585244297981, -1.494048833847046, 0.2629835605621338, -0.15552359819412231, 0.039137620478868484, -1.664219856262207, 0.5075477957725525, 1.4061558246612549, 1.3446166515350342, 2.376664161682129, -0.011255962774157524, 0.4571326673030853, 1.5210604667663574, 0.07106640934944153, 0.21249505877494812, 1.7461844682693481, 0.08395837992429733, 1.1874547004699707, 0.5535111427307129, 1.5826101303100586, 0.01064487174153328, 0.2781776785850525, 1.285366177558899, 3.048095226287842, 2.7714500427246094, 0.11783876270055771, 1.3326209783554077, 0.5711603760719299, 0.2815222144126892, 1.2004629373550415, 0.5139898061752319, 0.28420060873031616, 0.6457210183143616, 1.8074487447738647, 0.7881807684898376, 0.1570160984992981, 0.09448104351758957, 1.954671025276184, -0.23243270814418793, 0.22115013003349304, -0.17018449306488037, 0.11191248893737793, -0.06271523982286453, 0.010309437289834023, -0.01299911830574274, 0.003242343198508024, 0.08991719782352448, 0.030271807685494423, -0.0169062502682209, 0.1232546865940094, -0.03634147718548775, -0.06132988631725311, 0.10387533903121948, 0.010681642219424248, -0.24263358116149902, -0.05263420566916466, -0.0667443498969078, -0.03198852390050888, 0.12237043678760529, -0.2286035418510437, -0.11489564180374146, 0.07517723739147186, -0.04085562750697136, -0.026283903047442436, -0.05154085531830788, 0.07452142983675003, 0.06591077893972397, -0.12766413390636444, -0.018673088401556015, -0.14065444469451904, 0.7104461193084717, 0.3681703209877014, 0.1613808274269104, 0.33558228611946106, -0.1212630420923233, 0.050207726657390594, 0.16163650155067444, 0.03110860288143158, 0.6276369094848633, 0.423806369304657, -0.023243403062224388, -1.3929857015609741, 0.28157350420951843, 0.12615467607975006, -0.06521476805210114, 0.09361657500267029, 0.4699367880821228, 1.1026496887207031, -0.019030148163437843, -0.04880446195602417, 0.28834328055381775, 0.27335125207901, 0.5150296688079834, 0.056774336844682693, 0.18877290189266205, 0.042304717004299164, -0.8959067463874817, -0.17727920413017273, -0.14381082355976105, -0.158226877450943, 0.039525020867586136, 0.19489428400993347], "rec.bias_hh_l0": [0.40664124488830566, -0.7610110640525818, -1.1518720388412476, -2.17840838432312, -0.11606054753065109, -0.08656984567642212, -1.2965091466903687, 0.030783269554376602, 0.3416627049446106, -1.6784039735794067, -0.04635883867740631, 0.6182734370231628, 0.1245463639497757, -1.3758599758148193, -0.33070623874664307, 0.09480492025613785, -0.9370531439781189, -3.0672762393951416, -2.121988296508789, -0.06593792140483856, -1.0344239473342896, -0.6109580993652344, 0.17528444528579712, -0.6631963849067688, 0.0365574024617672, -0.2520831823348999, 0.06030585244297981, -1.494048833847046, 0.2629835605621338, -0.15552359819412231, 0.039137620478868484, -1.664219856262207, 0.5075477957725525, 1.4061558246612549, 1.3446166515350342, 2.376666307449341, -0.011255962774157524, 0.4571326673030853, 1.5210604667663574, 0.07106640934944153, 0.21249505877494812, 1.7461844682693481, 0.08395837992429733, 1.1874547004699707, 0.5535111427307129, 1.5826101303100586, 0.01064487174153328, 0.2781776785850525, 1.285366177558899, 3.048095226287842, 2.7714500427246094, 0.11783876270055771, 1.3326209783554077, 0.5711603760719299, 0.2815222144126892, 1.2004629373550415, 0.5139898061752319, 0.28420060873031616, 0.6457210183143616, 1.8074487447738647, 0.7881807684898376, 0.1570160984992981, 0.09448104351758957, 1.954671025276184, -0.35831066966056824, 0.22115013003349304, -0.17018449306488037, 0.16396284103393555, -0.06271523982286453, 0.010309437289834023, -0.01299911830574274, 0.003242343198508024, 0.08991719782352448, 0.030271807685494423, -0.0169062502682209, 0.1232546865940094, -0.03634147718548775, -0.06132988631725311, 0.10387533903121948, 0.010681642219424248, -0.24263358116149902, -0.05262485146522522, -0.0667443498969078, -0.03198852390050888, 0.12237043678760529, -0.2286035418510437, -0.11489567160606384, 0.07517723739147186, -0.04085562750697136, -0.026283903047442436, -0.05154084041714668, 0.07452142983675003, 0.06591074913740158, -0.12766413390636444, -0.018673088401556015, 